~o
<STREAMINFO> 1 39
<VECSIZE> 39<NULLD><MFCC_E_D_A_Z><DIAGC>
~v "varFloor1"
<VARIANCE> 39
 6.861462e-001 6.263850e-001 7.120525e-001 8.188937e-001 6.352394e-001 5.677641e-001 5.814112e-001 4.892490e-001 4.814005e-001 3.873737e-001 4.120209e-001 3.133031e-001 1.112957e-003 3.904592e-002 3.184199e-002 3.155269e-002 3.993287e-002 3.531108e-002 3.421412e-002 3.713752e-002 3.537499e-002 3.276677e-002 2.986590e-002 2.857409e-002 2.373704e-002 3.674556e-005 5.977050e-003 4.819559e-003 4.702826e-003 5.927144e-003 5.803639e-003 5.797056e-003 6.425965e-003 6.323626e-003 5.801235e-003 5.500587e-003 5.114701e-003 4.322350e-003 4.530832e-006
~s "silst"
<NUMMIXES> 4
<MIXTURE> 1 2.500000e-001
<MEAN> 39
 2.113963e+000 7.371753e+000 2.092610e+000 9.280530e+000 6.626467e+000 4.679671e+000 7.477260e+000 4.523959e+000 4.156612e+000 1.016137e+000 7.931173e-001 1.610463e+000 2.944737e-001 -1.705675e+000 1.122594e-001 9.497236e-002 1.406378e+000 1.386168e+000 1.238797e+000 1.402339e+000 1.454304e+000 1.408281e+000 1.216746e+000 1.201882e+000 9.612694e-001 -7.335316e-002 1.849201e-001 -1.073639e-001 1.329901e-001 -1.387007e-001 7.693593e-002 2.097783e-001 5.265868e-002 2.189029e-001 2.301668e-001 4.787791e-001 4.924520e-001 4.257093e-001 2.718553e-002
<VARIANCE> 39
 2.605887e+001 3.793306e+001 4.684355e+001 5.227505e+001 5.338261e+001 5.591219e+001 4.482077e+001 4.541087e+001 4.353836e+001 3.560168e+001 3.733712e+001 2.795977e+001 4.662718e-002 2.828380e+000 3.053584e+000 3.319410e+000 3.824160e+000 3.809283e+000 4.168950e+000 3.739623e+000 3.926915e+000 3.576382e+000 3.355359e+000 3.125894e+000 2.523941e+000 2.868599e-003 3.497306e-001 5.282360e-001 4.681059e-001 5.890082e-001 6.167516e-001 6.247523e-001 6.099004e-001 6.312418e-001 5.890616e-001 5.399342e-001 5.119078e-001 4.402688e-001 5.874471e-004
<GCONST> 1.071126e+002
<MIXTURE> 2 2.500000e-001
<MEAN> 39
 7.204696e-002 4.908160e+000 -6.450843e-001 6.388470e+000 3.703931e+000 1.688693e+000 4.799327e+000 1.828455e+000 1.517268e+000 -1.370549e+000 -1.651047e+000 -5.046174e-001 2.081004e-001 -2.378387e+000 -5.867209e-001 -6.337976e-001 6.241592e-001 6.054723e-001 4.220766e-001 6.288152e-001 6.616464e-001 6.518282e-001 4.840407e-001 4.946744e-001 3.257928e-001 -9.477689e-002 -5.163202e-002 -3.980833e-001 -1.406830e-001 -4.456882e-001 -2.371982e-001 -1.063868e-001 -2.597258e-001 -9.889996e-002 -7.683463e-002 1.848582e-001 2.062611e-001 1.602983e-001 1.749061e-002
<VARIANCE> 39
 2.605887e+001 3.793306e+001 4.684355e+001 5.227505e+001 5.338261e+001 5.591219e+001 4.482077e+001 4.541087e+001 4.353836e+001 3.560168e+001 3.733712e+001 2.795977e+001 4.662718e-002 2.828380e+000 3.053584e+000 3.319410e+000 3.824160e+000 3.809283e+000 4.168950e+000 3.739623e+000 3.926915e+000 3.576382e+000 3.355359e+000 3.125894e+000 2.523941e+000 2.868599e-003 3.497306e-001 5.282360e-001 4.681059e-001 5.890082e-001 6.167516e-001 6.247523e-001 6.099004e-001 6.312418e-001 5.890616e-001 5.399342e-001 5.119078e-001 4.402688e-001 5.874471e-004
<GCONST> 1.071126e+002
<MIXTURE> 3 2.500000e-001
<MEAN> 39
 7.204703e-002 4.908160e+000 -6.450842e-001 6.388470e+000 3.703931e+000 1.688693e+000 4.799327e+000 1.828455e+000 1.517268e+000 -1.370549e+000 -1.651047e+000 -5.046174e-001 2.081004e-001 -2.378387e+000 -5.867209e-001 -6.337976e-001 6.241593e-001 6.054723e-001 4.220766e-001 6.288152e-001 6.616464e-001 6.518282e-001 4.840407e-001 4.946744e-001 3.257928e-001 -9.477689e-002 -5.163203e-002 -3.980833e-001 -1.406830e-001 -4.456882e-001 -2.371982e-001 -1.063868e-001 -2.597258e-001 -9.889997e-002 -7.683462e-002 1.848582e-001 2.062611e-001 1.602983e-001 1.749061e-002
<VARIANCE> 39
 2.605887e+001 3.793306e+001 4.684355e+001 5.227505e+001 5.338261e+001 5.591219e+001 4.482077e+001 4.541087e+001 4.353836e+001 3.560168e+001 3.733712e+001 2.795977e+001 4.662718e-002 2.828380e+000 3.053584e+000 3.319410e+000 3.824160e+000 3.809283e+000 4.168950e+000 3.739623e+000 3.926915e+000 3.576382e+000 3.355359e+000 3.125894e+000 2.523941e+000 2.868599e-003 3.497306e-001 5.282360e-001 4.681059e-001 5.890082e-001 6.167516e-001 6.247523e-001 6.099004e-001 6.312418e-001 5.890616e-001 5.399342e-001 5.119078e-001 4.402688e-001 5.874471e-004
<GCONST> 1.071126e+002
<MIXTURE> 4 2.500000e-001
<MEAN> 39
 -1.969869e+000 2.444567e+000 -3.382778e+000 3.496411e+000 7.813948e-001 -1.302285e+000 2.121394e+000 -8.670486e-001 -1.122076e+000 -3.757235e+000 -4.095212e+000 -2.619697e+000 1.217271e-001 -3.051098e+000 -1.285701e+000 -1.362568e+000 -1.580592e-001 -1.752231e-001 -3.946437e-001 -1.447090e-001 -1.310114e-001 -1.046247e-001 -2.486649e-001 -2.125335e-001 -3.096839e-001 -1.162006e-001 -2.881841e-001 -6.888027e-001 -4.143561e-001 -7.526757e-001 -5.513324e-001 -4.225519e-001 -5.721103e-001 -4.167029e-001 -3.838360e-001 -1.090627e-001 -7.992983e-002 -1.051127e-001 7.795688e-003
<VARIANCE> 39
 2.605887e+001 3.793306e+001 4.684355e+001 5.227505e+001 5.338261e+001 5.591219e+001 4.482077e+001 4.541087e+001 4.353836e+001 3.560168e+001 3.733712e+001 2.795977e+001 4.662718e-002 2.828380e+000 3.053584e+000 3.319410e+000 3.824160e+000 3.809283e+000 4.168950e+000 3.739623e+000 3.926915e+000 3.576382e+000 3.355359e+000 3.125894e+000 2.523941e+000 2.868599e-003 3.497306e-001 5.282360e-001 4.681059e-001 5.890082e-001 6.167516e-001 6.247523e-001 6.099004e-001 6.312418e-001 5.890616e-001 5.399342e-001 5.119078e-001 4.402688e-001 5.874471e-004
<GCONST> 1.071126e+002
~h "@"
<BEGINHMM>
<NUMSTATES> 5
<STATE> 2
<NUMMIXES> 4
<MIXTURE> 1 2.500000e-001
<MEAN> 39
 3.604331e+000 7.200044e+000 7.233462e+000 3.657284e+000 2.387624e+000 1.189984e+000 1.014655e+000 1.332688e+000 1.033083e+000 2.410000e+000 1.438547e+000 1.874852e+000 6.717416e-001 1.722296e+000 1.840509e+000 2.416388e+000 -3.075160e-001 2.740715e-001 9.212523e-001 -1.739537e-001 -6.284773e-002 -2.042602e-001 4.723770e-001 6.426874e-001 4.106279e-001 1.069981e-001 2.121302e-001 -2.181346e-003 1.718273e-001 1.760033e-002 3.455713e-001 5.570181e-001 3.164326e-001 4.522511e-001 4.292504e-001 4.099458e-001 4.518405e-001 3.103139e-001 1.686404e-002
<VARIANCE> 39
 3.712873e+001 7.367428e+001 7.402443e+001 7.509912e+001 6.738061e+001 5.503242e+001 5.191816e+001 4.664075e+001 5.096016e+001 4.022172e+001 4.458981e+001 3.174532e+001 8.536895e-002 4.830551e+000 5.044190e+000 7.417151e+000 6.740216e+000 6.201627e+000 5.596353e+000 6.165900e+000 5.042727e+000 5.308990e+000 4.274547e+000 5.145377e+000 3.346412e+000 1.071215e-002 4.354454e-001 7.021693e-001 6.894321e-001 8.466877e-001 1.019686e+000 7.852015e-001 8.619589e-001 8.219427e-001 8.156601e-001 7.004315e-001 7.069307e-001 5.416115e-001 6.479545e-004
<GCONST> 1.210137e+002
<MIXTURE> 2 2.500000e-001
<MEAN> 39
 1.166997e+000 3.766695e+000 3.791964e+000 1.908940e-001 -8.958039e-001 -1.777370e+000 -1.867515e+000 -1.399073e+000 -1.822372e+000 -1.268239e-001 -1.232477e+000 -3.788670e-001 5.548698e-001 8.431553e-001 9.421378e-001 1.327010e+000 -1.345993e+000 -7.220511e-001 -2.501226e-002 -1.167203e+000 -9.610884e-001 -1.125910e+000 -3.546221e-001 -2.646495e-001 -3.211001e-001 6.559830e-002 -5.182290e-002 -3.373635e-001 -1.603009e-001 -3.504622e-001 -5.834670e-002 2.025717e-001 -5.493433e-002 8.960687e-002 6.799480e-002 7.517869e-002 1.155238e-001 1.593689e-002 6.682059e-003
<VARIANCE> 39
 3.712873e+001 7.367428e+001 7.402443e+001 7.509912e+001 6.738061e+001 5.503242e+001 5.191816e+001 4.664075e+001 5.096016e+001 4.022172e+001 4.458981e+001 3.174532e+001 8.536895e-002 4.830551e+000 5.044190e+000 7.417151e+000 6.740216e+000 6.201627e+000 5.596353e+000 6.165900e+000 5.042727e+000 5.308990e+000 4.274547e+000 5.145377e+000 3.346412e+000 1.071215e-002 4.354454e-001 7.021693e-001 6.894321e-001 8.466877e-001 1.019686e+000 7.852015e-001 8.619589e-001 8.219427e-001 8.156601e-001 7.004315e-001 7.069307e-001 5.416115e-001 6.479545e-004
<GCONST> 1.210137e+002
<MIXTURE> 3 2.500000e-001
<MEAN> 39
 1.166997e+000 3.766695e+000 3.791964e+000 1.908941e-001 -8.958039e-001 -1.777370e+000 -1.867515e+000 -1.399073e+000 -1.822372e+000 -1.268239e-001 -1.232477e+000 -3.788670e-001 5.548698e-001 8.431553e-001 9.421377e-001 1.327010e+000 -1.345993e+000 -7.220511e-001 -2.501225e-002 -1.167203e+000 -9.610884e-001 -1.125910e+000 -3.546221e-001 -2.646495e-001 -3.211001e-001 6.559830e-002 -5.182290e-002 -3.373635e-001 -1.603009e-001 -3.504622e-001 -5.834669e-002 2.025717e-001 -5.493433e-002 8.960687e-002 6.799480e-002 7.517869e-002 1.155238e-001 1.593689e-002 6.682059e-003
<VARIANCE> 39
 3.712873e+001 7.367428e+001 7.402443e+001 7.509912e+001 6.738061e+001 5.503242e+001 5.191816e+001 4.664075e+001 5.096016e+001 4.022172e+001 4.458981e+001 3.174532e+001 8.536895e-002 4.830551e+000 5.044190e+000 7.417151e+000 6.740216e+000 6.201627e+000 5.596353e+000 6.165900e+000 5.042727e+000 5.308990e+000 4.274547e+000 5.145377e+000 3.346412e+000 1.071215e-002 4.354454e-001 7.021693e-001 6.894321e-001 8.466877e-001 1.019686e+000 7.852015e-001 8.619589e-001 8.219427e-001 8.156601e-001 7.004315e-001 7.069307e-001 5.416115e-001 6.479545e-004
<GCONST> 1.210137e+002
<MIXTURE> 4 2.500000e-001
<MEAN> 39
 -1.270337e+000 3.333462e-001 3.504661e-001 -3.275496e+000 -4.179232e+000 -4.744724e+000 -4.749685e+000 -4.130834e+000 -4.677827e+000 -2.663648e+000 -3.903501e+000 -2.632586e+000 4.379979e-001 -3.598528e-002 4.376680e-002 2.376322e-001 -2.384470e+000 -1.718174e+000 -9.712768e-001 -2.160452e+000 -1.859329e+000 -2.047560e+000 -1.181621e+000 -1.171986e+000 -1.052828e+000 2.419849e-002 -3.157761e-001 -6.725457e-001 -4.924291e-001 -7.185247e-001 -4.622647e-001 -1.518747e-001 -4.263013e-001 -2.730373e-001 -2.932608e-001 -2.595885e-001 -2.207929e-001 -2.784401e-001 -3.499922e-003
<VARIANCE> 39
 3.712873e+001 7.367428e+001 7.402443e+001 7.509912e+001 6.738061e+001 5.503242e+001 5.191816e+001 4.664075e+001 5.096016e+001 4.022172e+001 4.458981e+001 3.174532e+001 8.536895e-002 4.830551e+000 5.044190e+000 7.417151e+000 6.740216e+000 6.201627e+000 5.596353e+000 6.165900e+000 5.042727e+000 5.308990e+000 4.274547e+000 5.145377e+000 3.346412e+000 1.071215e-002 4.354454e-001 7.021693e-001 6.894321e-001 8.466877e-001 1.019686e+000 7.852015e-001 8.619589e-001 8.219427e-001 8.156601e-001 7.004315e-001 7.069307e-001 5.416115e-001 6.479545e-004
<GCONST> 1.210137e+002
<STATE> 3
<NUMMIXES> 4
<MIXTURE> 1 2.500000e-001
<MEAN> 39
 4.813016e+000 7.321036e+000 1.013899e+001 -1.808128e-001 3.381273e-001 1.971087e+000 -1.674481e+000 -5.976522e-001 -1.122730e+000 1.995407e+000 1.195139e+000 1.407131e+000 7.624033e-001 5.101643e-001 1.114205e+000 1.303528e+000 -2.091675e-001 6.611608e-001 1.170470e+000 2.246982e-001 5.207736e-001 3.703595e-001 6.625468e-001 7.514626e-001 5.071428e-001 5.110422e-002 1.120477e-001 -1.940406e-001 -1.215908e-001 4.784448e-001 4.347154e-001 2.722519e-001 5.265249e-001 7.126827e-001 6.976538e-001 4.988859e-001 4.595392e-001 3.618776e-001 5.700212e-003
<VARIANCE> 39
 2.954433e+001 6.312743e+001 8.897289e+001 7.387704e+001 5.793464e+001 5.373193e+001 4.326286e+001 4.879336e+001 4.823637e+001 4.185995e+001 5.498320e+001 3.623221e+001 1.671918e-002 1.603804e+000 5.119812e+000 3.814547e+000 4.192692e+000 4.941675e+000 3.885937e+000 4.178149e+000 4.063849e+000 3.936565e+000 3.720122e+000 4.034254e+000 2.902283e+000 3.864224e-003 4.032866e-001 5.181971e-001 8.110707e-001 8.229825e-001 9.022371e-001 7.438561e-001 8.531755e-001 8.372836e-001 8.077815e-001 7.061908e-001 6.925868e-001 5.600889e-001 5.805607e-004
<GCONST> 1.134018e+002
<MIXTURE> 2 2.500000e-001
<MEAN> 39
 2.638828e+000 4.142925e+000 6.365976e+000 -3.618883e+000 -2.706465e+000 -9.609959e-001 -4.305461e+000 -3.391742e+000 -3.900826e+000 -5.925637e-001 -1.770887e+000 -1.000597e+000 7.106822e-001 3.598775e-003 2.091254e-001 5.222933e-001 -1.028210e+000 -2.280344e-001 3.819589e-001 -5.929226e-001 -2.855860e-001 -4.232717e-001 -1.089579e-001 -5.195549e-002 -1.743007e-001 2.623907e-002 -1.419717e-001 -4.819843e-001 -4.818286e-001 1.155713e-001 5.477077e-002 -7.273649e-002 1.570549e-001 3.466699e-001 3.381472e-001 1.627453e-001 1.266520e-001 6.252126e-002 -3.937718e-003
<VARIANCE> 39
 2.954433e+001 6.312743e+001 8.897289e+001 7.387704e+001 5.793464e+001 5.373193e+001 4.326286e+001 4.879336e+001 4.823637e+001 4.185995e+001 5.498320e+001 3.623221e+001 1.671918e-002 1.603804e+000 5.119812e+000 3.814547e+000 4.192692e+000 4.941675e+000 3.885937e+000 4.178149e+000 4.063849e+000 3.936565e+000 3.720122e+000 4.034254e+000 2.902283e+000 3.864224e-003 4.032866e-001 5.181971e-001 8.110707e-001 8.229825e-001 9.022371e-001 7.438561e-001 8.531755e-001 8.372836e-001 8.077815e-001 7.061908e-001 6.925868e-001 5.600889e-001 5.805607e-004
<GCONST> 1.134018e+002
<MIXTURE> 3 2.500000e-001
<MEAN> 39
 2.638828e+000 4.142925e+000 6.365975e+000 -3.618883e+000 -2.706465e+000 -9.609958e-001 -4.305461e+000 -3.391742e+000 -3.900826e+000 -5.925637e-001 -1.770887e+000 -1.000597e+000 7.106822e-001 3.598769e-003 2.091254e-001 5.222933e-001 -1.028210e+000 -2.280344e-001 3.819589e-001 -5.929226e-001 -2.855860e-001 -4.232717e-001 -1.089579e-001 -5.195550e-002 -1.743007e-001 2.623907e-002 -1.419717e-001 -4.819843e-001 -4.818286e-001 1.155713e-001 5.477077e-002 -7.273649e-002 1.570549e-001 3.466699e-001 3.381472e-001 1.627453e-001 1.266520e-001 6.252126e-002 -3.937719e-003
<VARIANCE> 39
 2.954433e+001 6.312743e+001 8.897289e+001 7.387704e+001 5.793464e+001 5.373193e+001 4.326286e+001 4.879336e+001 4.823637e+001 4.185995e+001 5.498320e+001 3.623221e+001 1.671918e-002 1.603804e+000 5.119812e+000 3.814547e+000 4.192692e+000 4.941675e+000 3.885937e+000 4.178149e+000 4.063849e+000 3.936565e+000 3.720122e+000 4.034254e+000 2.902283e+000 3.864224e-003 4.032866e-001 5.181971e-001 8.110707e-001 8.229825e-001 9.022371e-001 7.438561e-001 8.531755e-001 8.372836e-001 8.077815e-001 7.061908e-001 6.925868e-001 5.600889e-001 5.805607e-004
<GCONST> 1.134018e+002
<MIXTURE> 4 2.500000e-001
<MEAN> 39
 4.646401e-001 9.648138e-001 2.592958e+000 -7.056953e+000 -5.751057e+000 -3.893079e+000 -6.936441e+000 -6.185832e+000 -6.678922e+000 -3.180534e+000 -4.736913e+000 -3.408325e+000 6.589611e-001 -5.029668e-001 -6.959547e-001 -2.589413e-001 -1.847252e+000 -1.117230e+000 -4.065523e-001 -1.410543e+000 -1.091946e+000 -1.216903e+000 -8.804626e-001 -8.553736e-001 -8.557442e-001 1.373915e-003 -3.959911e-001 -7.699279e-001 -8.420665e-001 -2.473022e-001 -3.251739e-001 -4.177248e-001 -2.124151e-001 -1.934290e-002 -2.135947e-002 -1.733954e-001 -2.062352e-001 -2.368351e-001 -1.357565e-002
<VARIANCE> 39
 2.954433e+001 6.312743e+001 8.897289e+001 7.387704e+001 5.793464e+001 5.373193e+001 4.326286e+001 4.879336e+001 4.823637e+001 4.185995e+001 5.498320e+001 3.623221e+001 1.671918e-002 1.603804e+000 5.119812e+000 3.814547e+000 4.192692e+000 4.941675e+000 3.885937e+000 4.178149e+000 4.063849e+000 3.936565e+000 3.720122e+000 4.034254e+000 2.902283e+000 3.864224e-003 4.032866e-001 5.181971e-001 8.110707e-001 8.229825e-001 9.022371e-001 7.438561e-001 8.531755e-001 8.372836e-001 8.077815e-001 7.061908e-001 6.925868e-001 5.600889e-001 5.805607e-004
<GCONST> 1.134018e+002
<STATE> 4
<NUMMIXES> 4
<MIXTURE> 1 2.500000e-001
<MEAN> 39
 3.376308e+000 8.943977e+000 1.186228e+001 -1.718223e+000 -6.741352e-002 8.617387e-001 -2.798751e+000 -8.364425e-001 -1.740696e+000 2.339635e+000 7.488191e-001 1.538329e+000 7.717130e-001 2.443859e-001 8.349729e-002 5.088490e-001 4.042149e-001 1.186992e-001 5.748947e-001 5.590166e-001 8.362255e-001 8.667292e-001 9.674499e-001 1.072001e+000 6.890146e-001 3.245643e-002 1.632822e-001 -2.124438e-001 -2.277595e-002 4.371948e-001 2.476227e-001 2.021780e-001 5.156630e-001 5.719192e-001 5.743552e-001 4.150461e-001 4.049194e-001 3.174598e-001 6.849184e-003
<VARIANCE> 39
 2.755010e+001 5.788851e+001 8.135235e+001 7.354813e+001 5.219306e+001 5.032170e+001 4.047525e+001 4.364008e+001 4.412531e+001 4.072284e+001 6.188293e+001 3.287877e+001 1.299573e-002 7.946411e-001 3.609910e+000 2.250519e+000 2.930116e+000 3.271133e+000 2.998022e+000 3.149985e+000 3.220123e+000 3.260604e+000 2.941363e+000 3.027637e+000 2.347148e+000 1.105037e-003 1.922442e-001 3.433253e-001 5.605406e-001 5.094255e-001 6.751568e-001 5.648308e-001 6.436769e-001 6.571219e-001 5.925395e-001 5.364735e-001 5.601133e-001 4.353134e-001 2.896016e-004
<GCONST> 1.023208e+002
<MIXTURE> 2 2.500000e-001
<MEAN> 39
 1.276781e+000 5.900597e+000 8.254457e+000 -5.148631e+000 -2.957204e+000 -1.975773e+000 -5.343558e+000 -3.478868e+000 -4.397772e+000 -2.129425e-001 -2.397809e+000 -7.552714e-001 7.261134e-001 -1.121847e-001 -6.764932e-001 -9.122024e-002 -2.804884e-001 -6.047517e-001 -1.176972e-001 -1.509113e-001 1.184374e-001 1.444435e-001 2.814338e-001 3.759970e-001 7.619846e-002 1.915959e-002 -1.210042e-002 -4.468197e-001 -3.222530e-001 1.516986e-001 -8.104904e-002 -9.844286e-002 1.947451e-001 2.476670e-001 2.664489e-001 1.220687e-001 1.055565e-001 5.354668e-002 4.210972e-005
<VARIANCE> 39
 2.755010e+001 5.788851e+001 8.135235e+001 7.354813e+001 5.219306e+001 5.032170e+001 4.047525e+001 4.364008e+001 4.412531e+001 4.072284e+001 6.188293e+001 3.287877e+001 1.299573e-002 7.946411e-001 3.609910e+000 2.250519e+000 2.930116e+000 3.271133e+000 2.998022e+000 3.149985e+000 3.220123e+000 3.260604e+000 2.941363e+000 3.027637e+000 2.347148e+000 1.105037e-003 1.922442e-001 3.433253e-001 5.605406e-001 5.094255e-001 6.751568e-001 5.648308e-001 6.436769e-001 6.571219e-001 5.925395e-001 5.364735e-001 5.601133e-001 4.353134e-001 2.896016e-004
<GCONST> 1.023208e+002
<MIXTURE> 3 2.500000e-001
<MEAN> 39
 1.276781e+000 5.900597e+000 8.254457e+000 -5.148631e+000 -2.957204e+000 -1.975773e+000 -5.343558e+000 -3.478868e+000 -4.397772e+000 -2.129425e-001 -2.397809e+000 -7.552713e-001 7.261134e-001 -1.121847e-001 -6.764932e-001 -9.122023e-002 -2.804884e-001 -6.047517e-001 -1.176972e-001 -1.509113e-001 1.184374e-001 1.444435e-001 2.814338e-001 3.759970e-001 7.619844e-002 1.915959e-002 -1.210042e-002 -4.468197e-001 -3.222530e-001 1.516986e-001 -8.104904e-002 -9.844285e-002 1.947451e-001 2.476670e-001 2.664489e-001 1.220687e-001 1.055565e-001 5.354667e-002 4.210978e-005
<VARIANCE> 39
 2.755010e+001 5.788851e+001 8.135235e+001 7.354813e+001 5.219306e+001 5.032170e+001 4.047525e+001 4.364008e+001 4.412531e+001 4.072284e+001 6.188293e+001 3.287877e+001 1.299573e-002 7.946411e-001 3.609910e+000 2.250519e+000 2.930116e+000 3.271133e+000 2.998022e+000 3.149985e+000 3.220123e+000 3.260604e+000 2.941363e+000 3.027637e+000 2.347148e+000 1.105037e-003 1.922442e-001 3.433253e-001 5.605406e-001 5.094255e-001 6.751568e-001 5.648308e-001 6.436769e-001 6.571219e-001 5.925395e-001 5.364735e-001 5.601133e-001 4.353134e-001 2.896016e-004
<GCONST> 1.023208e+002
<MIXTURE> 4 2.500000e-001
<MEAN> 39
 -8.227466e-001 2.857217e+000 4.646636e+000 -8.579040e+000 -5.846995e+000 -4.813285e+000 -7.888364e+000 -6.121294e+000 -7.054847e+000 -2.765520e+000 -5.544437e+000 -3.048872e+000 6.805138e-001 -4.687552e-001 -1.436484e+000 -6.912894e-001 -9.651917e-001 -1.328203e+000 -8.102891e-001 -8.608392e-001 -5.993506e-001 -5.778422e-001 -4.045823e-001 -3.200072e-001 -5.366177e-001 5.862752e-003 -1.874831e-001 -6.811956e-001 -6.217300e-001 -1.337976e-001 -4.097207e-001 -3.990638e-001 -1.261728e-001 -7.658522e-002 -4.145746e-002 -1.709087e-001 -1.938064e-001 -2.103665e-001 -6.764964e-003
<VARIANCE> 39
 2.755010e+001 5.788851e+001 8.135235e+001 7.354813e+001 5.219306e+001 5.032170e+001 4.047525e+001 4.364008e+001 4.412531e+001 4.072284e+001 6.188293e+001 3.287877e+001 1.299573e-002 7.946411e-001 3.609910e+000 2.250519e+000 2.930116e+000 3.271133e+000 2.998022e+000 3.149985e+000 3.220123e+000 3.260604e+000 2.941363e+000 3.027637e+000 2.347148e+000 1.105037e-003 1.922442e-001 3.433253e-001 5.605406e-001 5.094255e-001 6.751568e-001 5.648308e-001 6.436769e-001 6.571219e-001 5.925395e-001 5.364735e-001 5.601133e-001 4.353134e-001 2.896016e-004
<GCONST> 1.023208e+002
<TRANSP> 5
 0.000000e+000 1.000000e+000 0.000000e+000 0.000000e+000 0.000000e+000
 0.000000e+000 3.695197e-001 6.304803e-001 0.000000e+000 0.000000e+000
 0.000000e+000 0.000000e+000 1.551755e-001 8.448245e-001 0.000000e+000
 0.000000e+000 0.000000e+000 0.000000e+000 5.322220e-001 4.677780e-001
 0.000000e+000 0.000000e+000 0.000000e+000 0.000000e+000 0.000000e+000
<ENDHMM>
~h "R"
<BEGINHMM>
<NUMSTATES> 5
<STATE> 2
<NUMMIXES> 4
<MIXTURE> 1 2.500000e-001
<MEAN> 39
 7.630691e+000 -9.020371e+000 -6.273407e+000 5.790323e+000 2.964303e+000 5.367169e+000 1.792030e+000 3.928843e+000 4.628538e+000 7.118609e-002 1.664273e+000 6.756759e-001 9.183332e-001 4.315355e-001 3.964511e-001 1.993523e-001 9.267883e-001 3.056373e-001 1.035349e-001 4.960542e-001 7.785341e-001 6.577737e-001 2.609134e-001 3.196549e-001 6.518139e-001 3.885574e-003 9.938252e-002 2.303968e-001 2.063108e-001 1.302581e-001 1.120355e-001 1.016543e-001 2.071585e-001 2.276468e-001 1.735062e-001 1.792029e-001 1.596172e-001 1.955849e-001 -3.897792e-004
<VARIANCE> 39
 1.554985e+001 3.467646e+001 2.879208e+001 4.551165e+001 3.921861e+001 6.555366e+001 4.112432e+001 4.804497e+001 4.961963e+001 2.719456e+001 2.884698e+001 3.063769e+001 1.316594e-002 3.375304e-001 6.827700e-001 6.913911e-001 1.034107e+000 1.259556e+000 1.567583e+000 1.543863e+000 1.623436e+000 1.579782e+000 1.206655e+000 1.216468e+000 1.139812e+000 4.728350e-004 5.116973e-002 9.427834e-002 1.034247e-001 1.386084e-001 1.711445e-001 1.988133e-001 2.086176e-001 2.261022e-001 2.238038e-001 1.837626e-001 1.859526e-001 1.835501e-001 4.101710e-005
<GCONST> 7.067484e+001
<MIXTURE> 2 2.500000e-001
<MEAN> 39
 6.053359e+000 -1.137584e+001 -8.419737e+000 3.091830e+000 4.593125e-001 2.128561e+000 -7.730996e-001 1.156264e+000 1.810890e+000 -2.014750e+000 -4.841025e-001 -1.538377e+000 8.724361e-001 1.991460e-001 6.593148e-002 -1.332474e-001 5.200241e-001 -1.432825e-001 -3.972777e-001 -9.549778e-004 2.688775e-001 1.550162e-001 -1.784780e-001 -1.215195e-001 2.247660e-001 -4.812334e-003 8.899612e-003 1.075777e-001 7.767192e-002 -1.866254e-002 -5.344297e-002 -7.669961e-002 2.445977e-002 3.744595e-002 -1.572543e-002 7.732694e-003 -1.287168e-002 2.421387e-002 -2.951563e-003
<VARIANCE> 39
 1.554985e+001 3.467646e+001 2.879208e+001 4.551165e+001 3.921861e+001 6.555366e+001 4.112432e+001 4.804497e+001 4.961963e+001 2.719456e+001 2.884698e+001 3.063769e+001 1.316594e-002 3.375304e-001 6.827700e-001 6.913911e-001 1.034107e+000 1.259556e+000 1.567583e+000 1.543863e+000 1.623436e+000 1.579782e+000 1.206655e+000 1.216468e+000 1.139812e+000 4.728350e-004 5.116973e-002 9.427834e-002 1.034247e-001 1.386084e-001 1.711445e-001 1.988133e-001 2.086176e-001 2.261022e-001 2.238038e-001 1.837626e-001 1.859526e-001 1.835501e-001 4.101710e-005
<GCONST> 7.067484e+001
<MIXTURE> 3 2.500000e-001
<MEAN> 39
 6.053359e+000 -1.137584e+001 -8.419737e+000 3.091830e+000 4.593125e-001 2.128561e+000 -7.730995e-001 1.156264e+000 1.810890e+000 -2.014750e+000 -4.841025e-001 -1.538377e+000 8.724361e-001 1.991460e-001 6.593148e-002 -1.332474e-001 5.200241e-001 -1.432825e-001 -3.972777e-001 -9.549786e-004 2.688775e-001 1.550162e-001 -1.784780e-001 -1.215195e-001 2.247660e-001 -4.812334e-003 8.899612e-003 1.075777e-001 7.767192e-002 -1.866254e-002 -5.344298e-002 -7.669961e-002 2.445977e-002 3.744595e-002 -1.572543e-002 7.732700e-003 -1.287168e-002 2.421387e-002 -2.951563e-003
<VARIANCE> 39
 1.554985e+001 3.467646e+001 2.879208e+001 4.551165e+001 3.921861e+001 6.555366e+001 4.112432e+001 4.804497e+001 4.961963e+001 2.719456e+001 2.884698e+001 3.063769e+001 1.316594e-002 3.375304e-001 6.827700e-001 6.913911e-001 1.034107e+000 1.259556e+000 1.567583e+000 1.543863e+000 1.623436e+000 1.579782e+000 1.206655e+000 1.216468e+000 1.139812e+000 4.728350e-004 5.116973e-002 9.427834e-002 1.034247e-001 1.386084e-001 1.711445e-001 1.988133e-001 2.086176e-001 2.261022e-001 2.238038e-001 1.837626e-001 1.859526e-001 1.835501e-001 4.101710e-005
<GCONST> 7.067484e+001
<MIXTURE> 4 2.500000e-001
<MEAN> 39
 4.476027e+000 -1.373131e+001 -1.056607e+001 3.933370e-001 -2.045678e+000 -1.110047e+000 -3.338229e+000 -1.616315e+000 -1.006758e+000 -4.100686e+000 -2.632478e+000 -3.752430e+000 8.265390e-001 -3.324346e-002 -2.645881e-001 -4.658471e-001 1.132599e-001 -5.922023e-001 -8.980904e-001 -4.979641e-001 -2.407790e-001 -3.477413e-001 -6.178694e-001 -5.626939e-001 -2.022819e-001 -1.351024e-002 -8.158330e-002 -1.524142e-002 -5.096692e-002 -1.675831e-001 -2.189214e-001 -2.550536e-001 -1.582389e-001 -1.527549e-001 -2.049571e-001 -1.637375e-001 -1.853606e-001 -1.471571e-001 -5.513347e-003
<VARIANCE> 39
 1.554985e+001 3.467646e+001 2.879208e+001 4.551165e+001 3.921861e+001 6.555366e+001 4.112432e+001 4.804497e+001 4.961963e+001 2.719456e+001 2.884698e+001 3.063769e+001 1.316594e-002 3.375304e-001 6.827700e-001 6.913911e-001 1.034107e+000 1.259556e+000 1.567583e+000 1.543863e+000 1.623436e+000 1.579782e+000 1.206655e+000 1.216468e+000 1.139812e+000 4.728350e-004 5.116973e-002 9.427834e-002 1.034247e-001 1.386084e-001 1.711445e-001 1.988133e-001 2.086176e-001 2.261022e-001 2.238038e-001 1.837626e-001 1.859526e-001 1.835501e-001 4.101710e-005
<GCONST> 7.067484e+001
<STATE> 3
<NUMMIXES> 4
<MIXTURE> 1 2.500000e-001
<MEAN> 39
 9.397367e+000 -9.742792e+000 -6.058952e+000 9.930720e+000 -5.852609e-001 3.602688e-001 2.931369e+000 9.129413e+000 4.424452e+000 3.714852e-002 -5.129833e-002 1.600033e+000 8.554159e-001 6.607236e-001 1.655704e+000 1.567865e+000 1.095432e+000 6.508477e-002 -3.267887e-001 9.817286e-001 1.181445e+000 6.407444e-001 8.863338e-001 8.780913e-001 1.169632e+000 -1.353857e-002 5.241975e-003 6.342815e-001 5.610108e-001 1.172777e-001 5.615840e-001 4.110968e-001 3.138347e-001 2.859629e-002 2.694953e-001 2.905514e-001 3.873711e-001 2.607462e-001 -4.166923e-003
<VARIANCE> 39
 1.622959e+001 4.290995e+001 4.091009e+001 4.433878e+001 6.224358e+001 6.262751e+001 5.765678e+001 7.153702e+001 8.926071e+001 4.117752e+001 3.460183e+001 3.388756e+001 1.448999e-002 7.620456e-001 1.646969e+000 2.349445e+000 2.883215e+000 2.990204e+000 3.079063e+000 3.575253e+000 4.394963e+000 3.637461e+000 2.756328e+000 2.996134e+000 2.698425e+000 9.336924e-004 1.534739e-001 2.454248e-001 2.636482e-001 3.673251e-001 4.807519e-001 4.493262e-001 5.459099e-001 6.931016e-001 6.534532e-001 4.887789e-001 4.501084e-001 4.297921e-001 1.009780e-004
<GCONST> 9.779244e+001
<MIXTURE> 2 2.500000e-001
<MEAN> 39
 7.785928e+000 -1.236302e+001 -8.617393e+000 7.267226e+000 -3.741045e+000 -2.805233e+000 -1.059134e-001 5.746230e+000 6.453362e-001 -2.529640e+000 -2.404231e+000 -7.284876e-001 8.072662e-001 3.115427e-001 1.142367e+000 9.547494e-001 4.162306e-001 -6.266035e-001 -1.028679e+000 2.253950e-001 3.428782e-001 -1.221407e-001 2.222460e-001 1.857176e-001 5.125570e-001 -2.576112e-002 -1.514610e-001 4.361200e-001 3.556241e-001 -1.251517e-001 2.842389e-001 1.429696e-001 1.829189e-002 -3.044146e-001 -5.385048e-002 1.090050e-002 1.190106e-001 -1.487923e-003 -8.186435e-003
<VARIANCE> 39
 1.622959e+001 4.290995e+001 4.091009e+001 4.433878e+001 6.224358e+001 6.262751e+001 5.765678e+001 7.153702e+001 8.926071e+001 4.117752e+001 3.460183e+001 3.388756e+001 1.448999e-002 7.620456e-001 1.646969e+000 2.349445e+000 2.883215e+000 2.990204e+000 3.079063e+000 3.575253e+000 4.394963e+000 3.637461e+000 2.756328e+000 2.996134e+000 2.698425e+000 9.336924e-004 1.534739e-001 2.454248e-001 2.636482e-001 3.673251e-001 4.807519e-001 4.493262e-001 5.459099e-001 6.931016e-001 6.534532e-001 4.887789e-001 4.501084e-001 4.297921e-001 1.009780e-004
<GCONST> 9.779244e+001
<MIXTURE> 3 2.500000e-001
<MEAN> 39
 7.785928e+000 -1.236302e+001 -8.617393e+000 7.267226e+000 -3.741045e+000 -2.805233e+000 -1.059134e-001 5.746230e+000 6.453363e-001 -2.529640e+000 -2.404231e+000 -7.284877e-001 8.072662e-001 3.115427e-001 1.142367e+000 9.547493e-001 4.162306e-001 -6.266035e-001 -1.028679e+000 2.253950e-001 3.428782e-001 -1.221407e-001 2.222460e-001 1.857176e-001 5.125570e-001 -2.576112e-002 -1.514610e-001 4.361200e-001 3.556241e-001 -1.251517e-001 2.842389e-001 1.429696e-001 1.829188e-002 -3.044146e-001 -5.385048e-002 1.090048e-002 1.190106e-001 -1.487928e-003 -8.186435e-003
<VARIANCE> 39
 1.622959e+001 4.290995e+001 4.091009e+001 4.433878e+001 6.224358e+001 6.262751e+001 5.765678e+001 7.153702e+001 8.926071e+001 4.117752e+001 3.460183e+001 3.388756e+001 1.448999e-002 7.620456e-001 1.646969e+000 2.349445e+000 2.883215e+000 2.990204e+000 3.079063e+000 3.575253e+000 4.394963e+000 3.637461e+000 2.756328e+000 2.996134e+000 2.698425e+000 9.336924e-004 1.534739e-001 2.454248e-001 2.636482e-001 3.673251e-001 4.807519e-001 4.493262e-001 5.459099e-001 6.931016e-001 6.534532e-001 4.887789e-001 4.501084e-001 4.297921e-001 1.009780e-004
<GCONST> 9.779244e+001
<MIXTURE> 4 2.500000e-001
<MEAN> 39
 6.174489e+000 -1.498325e+001 -1.117583e+001 4.603731e+000 -6.896829e+000 -5.970735e+000 -3.143196e+000 2.363048e+000 -3.133779e+000 -5.096428e+000 -4.757164e+000 -3.057009e+000 7.591165e-001 -3.763821e-002 6.290299e-001 3.416334e-001 -2.629707e-001 -1.318292e+000 -1.730569e+000 -5.309386e-001 -4.956885e-001 -8.850258e-001 -4.418417e-001 -5.066562e-001 -1.445183e-001 -3.798367e-002 -3.081640e-001 2.379585e-001 1.502374e-001 -3.675811e-001 6.893809e-003 -1.251576e-001 -2.772510e-001 -6.374255e-001 -3.771963e-001 -2.687504e-001 -1.493499e-001 -2.637221e-001 -1.220595e-002
<VARIANCE> 39
 1.622959e+001 4.290995e+001 4.091009e+001 4.433878e+001 6.224358e+001 6.262751e+001 5.765678e+001 7.153702e+001 8.926071e+001 4.117752e+001 3.460183e+001 3.388756e+001 1.448999e-002 7.620456e-001 1.646969e+000 2.349445e+000 2.883215e+000 2.990204e+000 3.079063e+000 3.575253e+000 4.394963e+000 3.637461e+000 2.756328e+000 2.996134e+000 2.698425e+000 9.336924e-004 1.534739e-001 2.454248e-001 2.636482e-001 3.673251e-001 4.807519e-001 4.493262e-001 5.459099e-001 6.931016e-001 6.534532e-001 4.887789e-001 4.501084e-001 4.297921e-001 1.009780e-004
<GCONST> 9.779244e+001
<STATE> 4
<NUMMIXES> 4
<MIXTURE> 1 2.500000e-001
<MEAN> 39
 9.742121e+000 6.833282e-001 2.119100e-001 1.040213e+001 1.458997e+000 -2.252511e+000 4.105783e+000 6.338335e+000 4.154770e+000 2.871192e-001 1.202531e+000 3.724132e+000 6.909859e-001 -6.512538e-001 3.683276e+000 2.502791e+000 1.176017e+000 2.237009e+000 1.457454e+000 1.816469e+000 4.905841e-001 8.851047e-001 6.240794e-001 8.092130e-001 4.279899e-001 -6.064475e-002 -5.004703e-001 2.093768e-001 2.904207e-001 1.658551e-001 5.694187e-001 8.401989e-001 5.008447e-001 4.413498e-001 4.502247e-001 4.839481e-001 3.680072e-001 8.178779e-002 -3.883330e-003
<VARIANCE> 39
 1.941143e+001 5.753978e+001 6.134085e+001 5.399693e+001 6.551211e+001 5.966080e+001 6.330661e+001 6.591299e+001 6.472334e+001 4.739301e+001 4.494732e+001 3.477832e+001 3.181190e-002 3.374626e+000 3.186259e+000 3.872167e+000 4.319774e+000 3.551059e+000 4.579175e+000 4.841969e+000 5.961370e+000 5.494172e+000 3.887897e+000 3.452916e+000 3.085187e+000 2.280514e-003 3.982023e-001 8.270607e-001 6.830441e-001 7.236534e-001 7.155131e-001 6.688538e-001 8.158824e-001 8.736504e-001 7.255371e-001 7.431684e-001 6.718278e-001 5.747626e-001 2.677134e-004
<GCONST> 1.133453e+002
<MIXTURE> 2 2.500000e-001
<MEAN> 39
 7.979784e+000 -2.350871e+000 -2.920906e+000 7.462824e+000 -1.778585e+000 -5.342127e+000 9.231657e-001 3.090862e+000 9.367379e-001 -2.466584e+000 -1.479180e+000 1.365206e+000 6.196424e-001 -1.386060e+000 2.969272e+000 1.715678e+000 3.446540e-001 1.483239e+000 6.014941e-001 9.362897e-001 -4.860526e-001 -5.248132e-002 -1.646306e-001 6.593209e-002 -2.745981e-001 -7.974664e-002 -7.528833e-001 -1.543947e-001 -4.016517e-002 -1.744162e-001 2.310666e-001 5.130650e-001 1.395398e-001 6.747276e-002 1.095108e-001 1.391192e-001 4.014684e-002 -2.214646e-001 -1.042811e-002
<VARIANCE> 39
 1.941143e+001 5.753978e+001 6.134085e+001 5.399693e+001 6.551211e+001 5.966080e+001 6.330661e+001 6.591299e+001 6.472334e+001 4.739301e+001 4.494732e+001 3.477832e+001 3.181190e-002 3.374626e+000 3.186259e+000 3.872167e+000 4.319774e+000 3.551059e+000 4.579175e+000 4.841969e+000 5.961370e+000 5.494172e+000 3.887897e+000 3.452916e+000 3.085187e+000 2.280514e-003 3.982023e-001 8.270607e-001 6.830441e-001 7.236534e-001 7.155131e-001 6.688538e-001 8.158824e-001 8.736504e-001 7.255371e-001 7.431684e-001 6.718278e-001 5.747626e-001 2.677134e-004
<GCONST> 1.133453e+002
<MIXTURE> 3 2.500000e-001
<MEAN> 39
 7.979784e+000 -2.350871e+000 -2.920906e+000 7.462824e+000 -1.778585e+000 -5.342127e+000 9.231656e-001 3.090862e+000 9.367378e-001 -2.466584e+000 -1.479180e+000 1.365206e+000 6.196424e-001 -1.386060e+000 2.969272e+000 1.715678e+000 3.446540e-001 1.483239e+000 6.014941e-001 9.362898e-001 -4.860526e-001 -5.248130e-002 -1.646306e-001 6.593210e-002 -2.745981e-001 -7.974664e-002 -7.528833e-001 -1.543947e-001 -4.016517e-002 -1.744162e-001 2.310666e-001 5.130650e-001 1.395398e-001 6.747278e-002 1.095108e-001 1.391192e-001 4.014685e-002 -2.214646e-001 -1.042811e-002
<VARIANCE> 39
 1.941143e+001 5.753978e+001 6.134085e+001 5.399693e+001 6.551211e+001 5.966080e+001 6.330661e+001 6.591299e+001 6.472334e+001 4.739301e+001 4.494732e+001 3.477832e+001 3.181190e-002 3.374626e+000 3.186259e+000 3.872167e+000 4.319774e+000 3.551059e+000 4.579175e+000 4.841969e+000 5.961370e+000 5.494172e+000 3.887897e+000 3.452916e+000 3.085187e+000 2.280514e-003 3.982023e-001 8.270607e-001 6.830441e-001 7.236534e-001 7.155131e-001 6.688538e-001 8.158824e-001 8.736504e-001 7.255371e-001 7.431684e-001 6.718278e-001 5.747626e-001 2.677134e-004
<GCONST> 1.133453e+002
<MIXTURE> 4 2.500000e-001
<MEAN> 39
 6.217448e+000 -5.385070e+000 -6.053722e+000 4.523520e+000 -5.016167e+000 -8.431743e+000 -2.259452e+000 -1.566105e-001 -2.281295e+000 -5.220287e+000 -4.160891e+000 -9.937199e-001 5.482988e-001 -2.120866e+000 2.255268e+000 9.285650e-001 -4.867087e-001 7.294689e-001 -2.544662e-001 5.611074e-002 -1.462689e+000 -9.900674e-001 -9.533406e-001 -6.773489e-001 -9.771861e-001 -9.884853e-002 -1.005296e+000 -5.181662e-001 -3.707511e-001 -5.146875e-001 -1.072854e-001 1.859310e-001 -2.217650e-001 -3.064043e-001 -2.312031e-001 -2.057097e-001 -2.877136e-001 -5.247170e-001 -1.697289e-002
<VARIANCE> 39
 1.941143e+001 5.753978e+001 6.134085e+001 5.399693e+001 6.551211e+001 5.966080e+001 6.330661e+001 6.591299e+001 6.472334e+001 4.739301e+001 4.494732e+001 3.477832e+001 3.181190e-002 3.374626e+000 3.186259e+000 3.872167e+000 4.319774e+000 3.551059e+000 4.579175e+000 4.841969e+000 5.961370e+000 5.494172e+000 3.887897e+000 3.452916e+000 3.085187e+000 2.280514e-003 3.982023e-001 8.270607e-001 6.830441e-001 7.236534e-001 7.155131e-001 6.688538e-001 8.158824e-001 8.736504e-001 7.255371e-001 7.431684e-001 6.718278e-001 5.747626e-001 2.677134e-004
<GCONST> 1.133453e+002
<TRANSP> 5
 0.000000e+000 1.000000e+000 0.000000e+000 0.000000e+000 0.000000e+000
 0.000000e+000 8.755676e-001 1.244324e-001 0.000000e+000 0.000000e+000
 0.000000e+000 0.000000e+000 7.211590e-001 2.788410e-001 0.000000e+000
 0.000000e+000 0.000000e+000 0.000000e+000 6.491080e-001 3.508920e-001
 0.000000e+000 0.000000e+000 0.000000e+000 0.000000e+000 0.000000e+000
<ENDHMM>
~h "a"
<BEGINHMM>
<NUMSTATES> 7
<STATE> 2
<NUMMIXES> 4
<MIXTURE> 1 2.500000e-001
<MEAN> 39
 5.644050e+000 -9.360329e+000 -6.220906e+000 1.591522e-001 8.026474e+000 6.571797e+000 3.098654e+000 1.792430e+000 1.766996e+000 4.021612e-001 -5.027966e-001 -3.830929e-001 9.001265e-001 -8.292746e-002 -1.675491e+000 -1.688057e-001 9.492535e-001 2.563829e+000 2.085009e+000 5.366178e-001 1.995575e-001 9.526181e-001 3.967747e-001 7.977664e-001 2.912992e-001 5.419184e-002 -2.256100e-001 9.646976e-001 9.440411e-001 1.008005e+000 1.488091e-001 1.750150e-002 2.468261e-001 2.669506e-001 5.191392e-001 4.942923e-001 5.813661e-001 4.792384e-001 -2.050839e-002
<VARIANCE> 39
 1.524171e+001 2.732234e+001 2.872038e+001 6.644663e+001 4.330380e+001 5.132766e+001 4.611791e+001 3.661383e+001 3.260770e+001 3.546391e+001 3.077901e+001 3.432777e+001 7.899395e-003 1.175071e+000 2.029590e+000 2.218394e+000 4.487197e+000 3.057972e+000 2.914727e+000 3.814177e+000 3.382672e+000 3.018035e+000 2.558173e+000 3.198094e+000 2.557177e+000 1.209145e-003 4.623976e-001 3.250199e-001 3.777731e-001 6.139138e-001 5.121058e-001 6.986072e-001 7.208638e-001 7.650122e-001 7.636357e-001 5.586860e-001 5.885869e-001 5.795825e-001 3.661593e-004
<GCONST> 1.000962e+002
<MIXTURE> 2 2.500000e-001
<MEAN> 39
 4.082424e+000 -1.145116e+001 -8.364562e+000 -3.101440e+000 5.394249e+000 3.706064e+000 3.822476e-001 -6.279445e-001 -5.171301e-001 -1.979902e+000 -2.721950e+000 -2.726689e+000 8.645750e-001 -5.165302e-001 -2.245346e+000 -7.645767e-001 1.019333e-001 1.864347e+000 1.402106e+000 -2.445789e-001 -5.361242e-001 2.577184e-001 -2.429969e-001 8.243781e-002 -3.483478e-001 4.028274e-002 -4.976093e-001 7.366556e-001 6.981881e-001 6.945944e-001 -1.374372e-001 -3.168294e-001 -9.278870e-002 -8.290931e-002 1.695942e-001 1.953111e-001 2.744884e-001 1.747171e-001 -2.816251e-002
<VARIANCE> 39
 1.524171e+001 2.732234e+001 2.872038e+001 6.644663e+001 4.330380e+001 5.132766e+001 4.611791e+001 3.661383e+001 3.260770e+001 3.546391e+001 3.077901e+001 3.432777e+001 7.899395e-003 1.175071e+000 2.029590e+000 2.218394e+000 4.487197e+000 3.057972e+000 2.914727e+000 3.814177e+000 3.382672e+000 3.018035e+000 2.558173e+000 3.198094e+000 2.557177e+000 1.209145e-003 4.623976e-001 3.250199e-001 3.777731e-001 6.139138e-001 5.121058e-001 6.986072e-001 7.208638e-001 7.650122e-001 7.636357e-001 5.586860e-001 5.885869e-001 5.795825e-001 3.661593e-004
<GCONST> 1.000962e+002
<MIXTURE> 3 2.500000e-001
<MEAN> 39
 4.082424e+000 -1.145116e+001 -8.364562e+000 -3.101440e+000 5.394249e+000 3.706064e+000 3.822476e-001 -6.279445e-001 -5.171301e-001 -1.979902e+000 -2.721950e+000 -2.726689e+000 8.645750e-001 -5.165302e-001 -2.245346e+000 -7.645767e-001 1.019333e-001 1.864347e+000 1.402106e+000 -2.445789e-001 -5.361242e-001 2.577184e-001 -2.429969e-001 8.243779e-002 -3.483478e-001 4.028274e-002 -4.976093e-001 7.366556e-001 6.981881e-001 6.945944e-001 -1.374372e-001 -3.168294e-001 -9.278870e-002 -8.290931e-002 1.695942e-001 1.953111e-001 2.744884e-001 1.747171e-001 -2.816251e-002
<VARIANCE> 39
 1.524171e+001 2.732234e+001 2.872038e+001 6.644663e+001 4.330380e+001 5.132766e+001 4.611791e+001 3.661383e+001 3.260770e+001 3.546391e+001 3.077901e+001 3.432777e+001 7.899395e-003 1.175071e+000 2.029590e+000 2.218394e+000 4.487197e+000 3.057972e+000 2.914727e+000 3.814177e+000 3.382672e+000 3.018035e+000 2.558173e+000 3.198094e+000 2.557177e+000 1.209145e-003 4.623976e-001 3.250199e-001 3.777731e-001 6.139138e-001 5.121058e-001 6.986072e-001 7.208638e-001 7.650122e-001 7.636357e-001 5.586860e-001 5.885869e-001 5.795825e-001 3.661593e-004
<GCONST> 1.000962e+002
<MIXTURE> 4 2.500000e-001
<MEAN> 39
 2.520799e+000 -1.354199e+001 -1.050822e+001 -6.362032e+000 2.762024e+000 8.403309e-001 -2.334159e+000 -3.048319e+000 -2.801256e+000 -4.361965e+000 -4.941103e+000 -5.070285e+000 8.290236e-001 -9.501330e-001 -2.815201e+000 -1.360348e+000 -7.453869e-001 1.164865e+000 7.192032e-001 -1.025776e+000 -1.271806e+000 -4.371813e-001 -8.827685e-001 -6.328908e-001 -9.879948e-001 2.637364e-002 -7.696086e-001 5.086136e-001 4.523351e-001 3.811838e-001 -4.236835e-001 -6.511603e-001 -4.324035e-001 -4.327692e-001 -1.799508e-001 -1.036701e-001 -3.238928e-002 -1.298042e-001 -3.581662e-002
<VARIANCE> 39
 1.524171e+001 2.732234e+001 2.872038e+001 6.644663e+001 4.330380e+001 5.132766e+001 4.611791e+001 3.661383e+001 3.260770e+001 3.546391e+001 3.077901e+001 3.432777e+001 7.899395e-003 1.175071e+000 2.029590e+000 2.218394e+000 4.487197e+000 3.057972e+000 2.914727e+000 3.814177e+000 3.382672e+000 3.018035e+000 2.558173e+000 3.198094e+000 2.557177e+000 1.209145e-003 4.623976e-001 3.250199e-001 3.777731e-001 6.139138e-001 5.121058e-001 6.986072e-001 7.208638e-001 7.650122e-001 7.636357e-001 5.586860e-001 5.885869e-001 5.795825e-001 3.661593e-004
<GCONST> 1.000962e+002
<STATE> 3
<NUMMIXES> 4
<MIXTURE> 1 2.500000e-001
<MEAN> 39
 3.740785e+000 -1.167330e+001 -5.892292e+000 5.045737e+000 1.095565e+001 7.320918e+000 4.670613e-001 9.902536e-001 3.473670e+000 -2.514274e-001 1.427739e+000 -1.033899e+000 9.228997e-001 4.144198e-002 2.032990e-002 6.356010e-001 9.615362e-001 1.026060e+000 8.614634e-001 4.403928e-002 5.446260e-001 1.072114e+000 6.250287e-001 7.695096e-001 3.196431e-001 9.738156e-003 2.634668e-001 6.529852e-001 3.147267e-001 1.819580e-001 -1.717452e-001 -4.536739e-002 4.095816e-001 4.162807e-001 9.476504e-002 2.651240e-001 1.663068e-001 3.292558e-001 -4.701708e-003
<VARIANCE> 39
 1.571918e+001 3.010224e+001 2.571662e+001 9.336671e+001 3.899002e+001 4.437553e+001 5.142780e+001 3.739226e+001 2.691171e+001 2.863065e+001 3.383124e+001 2.825473e+001 1.425669e-002 5.836379e-001 8.001826e-001 9.879402e-001 1.773325e+000 1.487468e+000 1.750420e+000 1.764145e+000 1.961890e+000 2.072114e+000 1.600397e+000 1.808548e+000 1.680239e+000 4.421950e-004 1.260116e-001 2.310785e-001 2.258013e-001 4.059047e-001 3.075717e-001 3.411819e-001 3.998343e-001 4.155673e-001 4.119661e-001 3.237410e-001 3.400151e-001 3.192366e-001 1.235965e-004
<GCONST> 8.327249e+001
<MIXTURE> 2 2.500000e-001
<MEAN> 39
 2.154888e+000 -1.386792e+001 -7.920754e+000 1.180679e+000 8.457970e+000 4.656319e+000 -2.401466e+000 -1.455715e+000 1.398610e+000 -2.391732e+000 -8.988462e-001 -3.160106e+000 8.751391e-001 -2.641428e-001 -3.374818e-001 2.380203e-001 4.288712e-001 5.382133e-001 3.322496e-001 -4.872452e-001 -1.564393e-002 4.963201e-001 1.190015e-001 2.315805e-001 -1.988530e-001 1.326782e-003 1.214744e-001 4.607027e-001 1.246525e-001 -7.288462e-002 -3.935818e-001 -2.790105e-001 1.566518e-001 1.584226e-001 -1.619733e-001 3.753100e-002 -6.693646e-002 1.032517e-001 -9.148666e-003
<VARIANCE> 39
 1.571918e+001 3.010224e+001 2.571662e+001 9.336671e+001 3.899002e+001 4.437553e+001 5.142780e+001 3.739226e+001 2.691171e+001 2.863065e+001 3.383124e+001 2.825473e+001 1.425669e-002 5.836379e-001 8.001826e-001 9.879402e-001 1.773325e+000 1.487468e+000 1.750420e+000 1.764145e+000 1.961890e+000 2.072114e+000 1.600397e+000 1.808548e+000 1.680239e+000 4.421950e-004 1.260116e-001 2.310785e-001 2.258013e-001 4.059047e-001 3.075717e-001 3.411819e-001 3.998343e-001 4.155673e-001 4.119661e-001 3.237410e-001 3.400151e-001 3.192366e-001 1.235965e-004
<GCONST> 8.327249e+001
<MIXTURE> 3 2.500000e-001
<MEAN> 39
 2.154888e+000 -1.386792e+001 -7.920754e+000 1.180679e+000 8.457970e+000 4.656319e+000 -2.401466e+000 -1.455715e+000 1.398610e+000 -2.391732e+000 -8.988462e-001 -3.160106e+000 8.751391e-001 -2.641428e-001 -3.374818e-001 2.380203e-001 4.288712e-001 5.382133e-001 3.322496e-001 -4.872452e-001 -1.564392e-002 4.963201e-001 1.190015e-001 2.315805e-001 -1.988530e-001 1.326782e-003 1.214744e-001 4.607027e-001 1.246525e-001 -7.288463e-002 -3.935818e-001 -2.790105e-001 1.566518e-001 1.584226e-001 -1.619733e-001 3.753099e-002 -6.693646e-002 1.032517e-001 -9.148666e-003
<VARIANCE> 39
 1.571918e+001 3.010224e+001 2.571662e+001 9.336671e+001 3.899002e+001 4.437553e+001 5.142780e+001 3.739226e+001 2.691171e+001 2.863065e+001 3.383124e+001 2.825473e+001 1.425669e-002 5.836379e-001 8.001826e-001 9.879402e-001 1.773325e+000 1.487468e+000 1.750420e+000 1.764145e+000 1.961890e+000 2.072114e+000 1.600397e+000 1.808548e+000 1.680239e+000 4.421950e-004 1.260116e-001 2.310785e-001 2.258013e-001 4.059047e-001 3.075717e-001 3.411819e-001 3.998343e-001 4.155673e-001 4.119661e-001 3.237410e-001 3.400151e-001 3.192366e-001 1.235965e-004
<GCONST> 8.327249e+001
<MIXTURE> 4 2.500000e-001
<MEAN> 39
 5.689911e-001 -1.606254e+001 -9.949216e+000 -2.684379e+000 5.960290e+000 1.991721e+000 -5.269993e+000 -3.901684e+000 -6.764500e-001 -4.532037e+000 -3.225431e+000 -5.286313e+000 8.273785e-001 -5.697276e-001 -6.952935e-001 -1.595604e-001 -1.037938e-001 5.036611e-002 -1.969641e-001 -1.018530e+000 -5.759138e-001 -7.947347e-002 -3.870257e-001 -3.063486e-001 -7.173491e-001 -7.084591e-003 -2.051805e-002 2.684202e-001 -6.542172e-002 -3.277272e-001 -6.154184e-001 -5.126536e-001 -9.627801e-002 -9.943543e-002 -4.187117e-001 -1.900620e-001 -3.001797e-001 -1.227524e-001 -1.359562e-002
<VARIANCE> 39
 1.571918e+001 3.010224e+001 2.571662e+001 9.336671e+001 3.899002e+001 4.437553e+001 5.142780e+001 3.739226e+001 2.691171e+001 2.863065e+001 3.383124e+001 2.825473e+001 1.425669e-002 5.836379e-001 8.001826e-001 9.879402e-001 1.773325e+000 1.487468e+000 1.750420e+000 1.764145e+000 1.961890e+000 2.072114e+000 1.600397e+000 1.808548e+000 1.680239e+000 4.421950e-004 1.260116e-001 2.310785e-001 2.258013e-001 4.059047e-001 3.075717e-001 3.411819e-001 3.998343e-001 4.155673e-001 4.119661e-001 3.237410e-001 3.400151e-001 3.192366e-001 1.235965e-004
<GCONST> 8.327249e+001
<STATE> 4
<NUMMIXES> 4
<MIXTURE> 1 2.500000e-001
<MEAN> 39
 4.814727e+000 -7.434540e+000 -3.670076e+000 2.395973e+000 9.271394e+000 7.237425e+000 1.490482e+000 5.473324e-001 2.588848e+000 1.343653e+000 1.372514e+000 -1.103829e+000 9.084955e-001 2.753571e-001 3.545955e-001 2.456034e-001 4.029767e-001 3.647800e-001 3.128400e-001 3.654203e-001 3.887386e-001 2.711878e-001 3.185265e-001 2.835396e-001 3.159217e-001 2.170348e-003 1.454959e-001 2.456524e-001 1.243807e-001 1.428506e-001 5.197200e-002 6.615268e-002 2.168042e-001 1.967312e-001 1.064171e-001 1.350369e-001 1.153283e-001 1.579117e-001 -7.080217e-005
<VARIANCE> 39
 1.308221e+001 2.937671e+001 2.074261e+001 7.557835e+001 3.324736e+001 3.064028e+001 2.963881e+001 2.487230e+001 1.804751e+001 1.751067e+001 2.226471e+001 1.813151e+001 1.812444e-002 2.738785e-001 4.321772e-001 4.572442e-001 6.464549e-001 6.798218e-001 8.413588e-001 7.836882e-001 8.221870e-001 7.670962e-001 6.993690e-001 6.712022e-001 6.737515e-001 3.664220e-004 5.361381e-002 1.098762e-001 8.767686e-002 1.233895e-001 1.420823e-001 1.528074e-001 1.464247e-001 1.488653e-001 1.491145e-001 1.295349e-001 1.274409e-001 1.200707e-001 5.218866e-005
<GCONST> 5.727813e+001
<MIXTURE> 2 2.500000e-001
<MEAN> 39
 3.367954e+000 -9.602551e+000 -5.491838e+000 -1.081459e+000 6.964973e+000 5.023278e+000 -6.871797e-001 -1.447553e+000 8.895534e-001 -3.301768e-001 -5.149062e-001 -2.807073e+000 8.546447e-001 6.602347e-002 9.163471e-002 -2.487590e-002 8.136699e-002 3.497480e-002 -5.406244e-002 1.131560e-002 2.604047e-002 -7.914833e-002 -1.598667e-002 -4.416809e-002 -1.240780e-002 -5.486513e-003 5.287728e-002 1.130621e-001 5.939541e-003 2.343235e-003 -9.880322e-002 -9.020966e-002 6.374229e-002 4.239896e-002 -4.804434e-002 -8.926973e-003 -2.746717e-002 1.930684e-002 -2.960471e-003
<VARIANCE> 39
 1.308221e+001 2.937671e+001 2.074261e+001 7.557835e+001 3.324736e+001 3.064028e+001 2.963881e+001 2.487230e+001 1.804751e+001 1.751067e+001 2.226471e+001 1.813151e+001 1.812444e-002 2.738785e-001 4.321772e-001 4.572442e-001 6.464549e-001 6.798218e-001 8.413588e-001 7.836882e-001 8.221870e-001 7.670962e-001 6.993690e-001 6.712022e-001 6.737515e-001 3.664220e-004 5.361381e-002 1.098762e-001 8.767686e-002 1.233895e-001 1.420823e-001 1.528074e-001 1.464247e-001 1.488653e-001 1.491145e-001 1.295349e-001 1.274409e-001 1.200707e-001 5.218866e-005
<GCONST> 5.727813e+001
<MIXTURE> 3 2.500000e-001
<MEAN> 39
 3.367954e+000 -9.602551e+000 -5.491838e+000 -1.081459e+000 6.964972e+000 5.023278e+000 -6.871797e-001 -1.447553e+000 8.895535e-001 -3.301768e-001 -5.149062e-001 -2.807073e+000 8.546447e-001 6.602348e-002 9.163472e-002 -2.487591e-002 8.136699e-002 3.497480e-002 -5.406244e-002 1.131559e-002 2.604048e-002 -7.914834e-002 -1.598667e-002 -4.416810e-002 -1.240780e-002 -5.486513e-003 5.287728e-002 1.130621e-001 5.939538e-003 2.343240e-003 -9.880322e-002 -9.020966e-002 6.374228e-002 4.239896e-002 -4.804434e-002 -8.926973e-003 -2.746717e-002 1.930684e-002 -2.960471e-003
<VARIANCE> 39
 1.308221e+001 2.937671e+001 2.074261e+001 7.557835e+001 3.324736e+001 3.064028e+001 2.963881e+001 2.487230e+001 1.804751e+001 1.751067e+001 2.226471e+001 1.813151e+001 1.812444e-002 2.738785e-001 4.321772e-001 4.572442e-001 6.464549e-001 6.798218e-001 8.413588e-001 7.836882e-001 8.221870e-001 7.670962e-001 6.993690e-001 6.712022e-001 6.737515e-001 3.664220e-004 5.361381e-002 1.098762e-001 8.767686e-002 1.233895e-001 1.420823e-001 1.528074e-001 1.464247e-001 1.488653e-001 1.491145e-001 1.295349e-001 1.274409e-001 1.200707e-001 5.218866e-005
<GCONST> 5.727813e+001
<MIXTURE> 4 2.500000e-001
<MEAN> 39
 1.921180e+000 -1.177056e+001 -7.313600e+000 -4.558891e+000 4.658552e+000 2.809132e+000 -2.864841e+000 -3.442438e+000 -8.097410e-001 -2.004007e+000 -2.402326e+000 -4.510317e+000 8.007939e-001 -1.433101e-001 -1.713260e-001 -2.953552e-001 -2.402427e-001 -2.948304e-001 -4.209649e-001 -3.427891e-001 -3.366576e-001 -4.294845e-001 -3.504998e-001 -3.718758e-001 -3.407373e-001 -1.314337e-002 -3.974134e-002 -1.952822e-002 -1.125016e-001 -1.381641e-001 -2.495784e-001 -2.465720e-001 -8.931963e-002 -1.119333e-001 -2.025057e-001 -1.528908e-001 -1.702626e-001 -1.192980e-001 -5.850140e-003
<VARIANCE> 39
 1.308221e+001 2.937671e+001 2.074261e+001 7.557835e+001 3.324736e+001 3.064028e+001 2.963881e+001 2.487230e+001 1.804751e+001 1.751067e+001 2.226471e+001 1.813151e+001 1.812444e-002 2.738785e-001 4.321772e-001 4.572442e-001 6.464549e-001 6.798218e-001 8.413588e-001 7.836882e-001 8.221870e-001 7.670962e-001 6.993690e-001 6.712022e-001 6.737515e-001 3.664220e-004 5.361381e-002 1.098762e-001 8.767686e-002 1.233895e-001 1.420823e-001 1.528074e-001 1.464247e-001 1.488653e-001 1.491145e-001 1.295349e-001 1.274409e-001 1.200707e-001 5.218866e-005
<GCONST> 5.727813e+001
<STATE> 5
<NUMMIXES> 4
<MIXTURE> 1 2.500000e-001
<MEAN> 39
 4.824506e+000 -1.028925e+001 -5.786292e+000 2.558237e+000 9.410470e+000 6.659407e+000 2.100428e+000 2.539461e+000 2.227065e+000 1.949365e-001 7.811288e-002 -8.518959e-001 8.788771e-001 9.583623e-001 2.072938e+000 1.024342e+000 7.942749e-001 -6.939420e-001 -3.800739e-001 1.506979e+000 1.164052e+000 2.130853e-001 7.059076e-001 2.819645e-001 1.027321e+000 -2.271875e-002 2.256115e-001 8.865342e-001 5.240430e-001 5.281763e-001 1.191911e-001 9.287050e-002 3.404519e-001 1.639525e-001 3.123349e-001 2.854729e-001 2.514506e-001 3.497432e-001 -9.224999e-003
<VARIANCE> 39
 1.492526e+001 3.096730e+001 2.467317e+001 7.301764e+001 4.619779e+001 4.414642e+001 5.172572e+001 3.914199e+001 3.259848e+001 3.331825e+001 3.398601e+001 3.310958e+001 1.370748e-002 7.921490e-001 2.016721e+000 1.785209e+000 3.500832e+000 3.337581e+000 2.925520e+000 3.229222e+000 3.068385e+000 2.833643e+000 2.274161e+000 2.481074e+000 2.190860e+000 6.884608e-004 1.773575e-001 2.593793e-001 2.569699e-001 4.724178e-001 4.663250e-001 4.394566e-001 5.485821e-001 5.201962e-001 4.997092e-001 4.080666e-001 3.819847e-001 4.157110e-001 1.273547e-004
<GCONST> 9.299223e+001
<MIXTURE> 2 2.500000e-001
<MEAN> 39
 3.279177e+000 -1.251518e+001 -7.773176e+000 -8.597775e-001 6.691712e+000 4.001696e+000 -7.763963e-001 3.691836e-002 -5.673853e-002 -2.113942e+000 -2.253788e+000 -3.153533e+000 8.320455e-001 6.023513e-001 1.504893e+000 4.898947e-001 4.585448e-002 -1.424704e+000 -1.064240e+000 7.881774e-001 4.633795e-001 -4.602518e-001 1.026947e-001 -3.480925e-001 4.352587e-001 -3.321416e-002 5.715621e-002 6.828169e-001 3.212742e-001 2.532457e-001 -1.539609e-001 -1.722956e-001 4.418658e-002 -1.245460e-001 2.957447e-002 2.995258e-002 4.230988e-003 9.184065e-002 -1.373906e-002
<VARIANCE> 39
 1.492526e+001 3.096730e+001 2.467317e+001 7.301764e+001 4.619779e+001 4.414642e+001 5.172572e+001 3.914199e+001 3.259848e+001 3.331825e+001 3.398601e+001 3.310958e+001 1.370748e-002 7.921490e-001 2.016721e+000 1.785209e+000 3.500832e+000 3.337581e+000 2.925520e+000 3.229222e+000 3.068385e+000 2.833643e+000 2.274161e+000 2.481074e+000 2.190860e+000 6.884608e-004 1.773575e-001 2.593793e-001 2.569699e-001 4.724178e-001 4.663250e-001 4.394566e-001 5.485821e-001 5.201962e-001 4.997092e-001 4.080666e-001 3.819847e-001 4.157110e-001 1.273547e-004
<GCONST> 9.299223e+001
<MIXTURE> 3 2.500000e-001
<MEAN> 39
 3.279177e+000 -1.251518e+001 -7.773176e+000 -8.597776e-001 6.691712e+000 4.001696e+000 -7.763963e-001 3.691833e-002 -5.673846e-002 -2.113942e+000 -2.253788e+000 -3.153533e+000 8.320455e-001 6.023513e-001 1.504893e+000 4.898947e-001 4.585451e-002 -1.424704e+000 -1.064240e+000 7.881774e-001 4.633795e-001 -4.602518e-001 1.026947e-001 -3.480925e-001 4.352587e-001 -3.321416e-002 5.715621e-002 6.828169e-001 3.212742e-001 2.532457e-001 -1.539609e-001 -1.722956e-001 4.418658e-002 -1.245460e-001 2.957447e-002 2.995258e-002 4.230994e-003 9.184065e-002 -1.373906e-002
<VARIANCE> 39
 1.492526e+001 3.096730e+001 2.467317e+001 7.301764e+001 4.619779e+001 4.414642e+001 5.172572e+001 3.914199e+001 3.259848e+001 3.331825e+001 3.398601e+001 3.310958e+001 1.370748e-002 7.921490e-001 2.016721e+000 1.785209e+000 3.500832e+000 3.337581e+000 2.925520e+000 3.229222e+000 3.068385e+000 2.833643e+000 2.274161e+000 2.481074e+000 2.190860e+000 6.884608e-004 1.773575e-001 2.593793e-001 2.569699e-001 4.724178e-001 4.663250e-001 4.394566e-001 5.485821e-001 5.201962e-001 4.997092e-001 4.080666e-001 3.819847e-001 4.157110e-001 1.273547e-004
<GCONST> 9.299223e+001
<MIXTURE> 4 2.500000e-001
<MEAN> 39
 1.733848e+000 -1.474111e+001 -9.760059e+000 -4.277792e+000 3.972954e+000 1.343985e+000 -3.653220e+000 -2.465624e+000 -2.340542e+000 -4.422821e+000 -4.585689e+000 -5.455170e+000 7.852139e-001 2.463403e-001 9.368477e-001 -4.455215e-002 -7.025660e-001 -2.155466e+000 -1.748406e+000 6.937592e-002 -2.372927e-001 -1.133589e+000 -5.005182e-001 -9.781495e-001 -1.568035e-001 -4.370958e-002 -1.112991e-001 4.790997e-001 1.185054e-001 -2.168491e-002 -4.271129e-001 -4.374617e-001 -2.520787e-001 -4.130445e-001 -2.531860e-001 -2.255678e-001 -2.429887e-001 -1.660620e-001 -1.825312e-002
<VARIANCE> 39
 1.492526e+001 3.096730e+001 2.467317e+001 7.301764e+001 4.619779e+001 4.414642e+001 5.172572e+001 3.914199e+001 3.259848e+001 3.331825e+001 3.398601e+001 3.310958e+001 1.370748e-002 7.921490e-001 2.016721e+000 1.785209e+000 3.500832e+000 3.337581e+000 2.925520e+000 3.229222e+000 3.068385e+000 2.833643e+000 2.274161e+000 2.481074e+000 2.190860e+000 6.884608e-004 1.773575e-001 2.593793e-001 2.569699e-001 4.724178e-001 4.663250e-001 4.394566e-001 5.485821e-001 5.201962e-001 4.997092e-001 4.080666e-001 3.819847e-001 4.157110e-001 1.273547e-004
<GCONST> 9.299223e+001
<STATE> 6
<NUMMIXES> 4
<MIXTURE> 1 2.500000e-001
<MEAN> 39
 7.765061e+000 -7.680084e-002 -2.287250e+000 4.667549e+000 7.003819e+000 3.808269e+000 4.229567e+000 2.471987e+000 1.653365e+000 9.534672e-001 -1.024193e+000 2.164949e-001 6.897437e-001 2.151082e-001 3.667626e+000 1.844797e+000 2.274430e+000 6.861507e-001 4.596706e-001 1.321209e+000 7.859704e-001 8.100021e-001 4.895102e-001 6.377682e-001 8.634505e-001 -6.803275e-002 -5.510272e-001 4.988910e-002 2.383968e-001 3.406000e-001 6.717196e-001 6.608527e-001 2.647133e-001 4.167329e-001 5.164675e-001 3.833063e-001 5.424671e-001 2.558682e-001 -6.776189e-004
<VARIANCE> 39
 1.522644e+001 4.688426e+001 3.288604e+001 5.542526e+001 7.025789e+001 6.102805e+001 5.103722e+001 4.558018e+001 4.189021e+001 4.642035e+001 3.458196e+001 3.159415e+001 2.456609e-002 3.479057e+000 3.458090e+000 3.110894e+000 4.165194e+000 3.818552e+000 3.697789e+000 3.800024e+000 3.916844e+000 3.357462e+000 3.057416e+000 2.720625e+000 2.853178e+000 2.370455e-003 4.318274e-001 7.087888e-001 5.089313e-001 6.512840e-001 7.382389e-001 6.544959e-001 6.577177e-001 7.173338e-001 6.242939e-001 6.633217e-001 5.337147e-001 4.835270e-001 3.763888e-004
<GCONST> 1.075769e+002
<MIXTURE> 2 2.500000e-001
<MEAN> 39
 6.204219e+000 -2.815684e+000 -4.581104e+000 1.689623e+000 3.651019e+000 6.834511e-001 1.371953e+000 -2.285365e-001 -9.355407e-001 -1.771832e+000 -3.376450e+000 -2.031852e+000 6.270494e-001 -5.309810e-001 2.923788e+000 1.139288e+000 1.458078e+000 -9.549386e-002 -3.095148e-001 5.414633e-001 -5.670330e-003 7.706696e-002 -2.099085e-001 -2.200446e-002 1.877964e-001 -8.750767e-002 -8.138816e-001 -2.868693e-001 -4.696092e-002 1.779132e-002 3.280363e-001 3.372490e-001 -5.968589e-002 7.795070e-002 2.004184e-001 5.752802e-002 2.502440e-001 -2.227624e-002 -8.437916e-003
<VARIANCE> 39
 1.522644e+001 4.688426e+001 3.288604e+001 5.542526e+001 7.025789e+001 6.102805e+001 5.103722e+001 4.558018e+001 4.189021e+001 4.642035e+001 3.458196e+001 3.159415e+001 2.456609e-002 3.479057e+000 3.458090e+000 3.110894e+000 4.165194e+000 3.818552e+000 3.697789e+000 3.800024e+000 3.916844e+000 3.357462e+000 3.057416e+000 2.720625e+000 2.853178e+000 2.370455e-003 4.318274e-001 7.087888e-001 5.089313e-001 6.512840e-001 7.382389e-001 6.544959e-001 6.577177e-001 7.173338e-001 6.242939e-001 6.633217e-001 5.337147e-001 4.835270e-001 3.763888e-004
<GCONST> 1.075769e+002
<MIXTURE> 3 2.500000e-001
<MEAN> 39
 6.204219e+000 -2.815684e+000 -4.581104e+000 1.689623e+000 3.651019e+000 6.834511e-001 1.371953e+000 -2.285365e-001 -9.355406e-001 -1.771832e+000 -3.376450e+000 -2.031852e+000 6.270494e-001 -5.309810e-001 2.923788e+000 1.139288e+000 1.458078e+000 -9.549388e-002 -3.095148e-001 5.414633e-001 -5.670317e-003 7.706696e-002 -2.099085e-001 -2.200448e-002 1.877964e-001 -8.750767e-002 -8.138816e-001 -2.868693e-001 -4.696092e-002 1.779134e-002 3.280363e-001 3.372490e-001 -5.968590e-002 7.795071e-002 2.004184e-001 5.752802e-002 2.502440e-001 -2.227624e-002 -8.437916e-003
<VARIANCE> 39
 1.522644e+001 4.688426e+001 3.288604e+001 5.542526e+001 7.025789e+001 6.102805e+001 5.103722e+001 4.558018e+001 4.189021e+001 4.642035e+001 3.458196e+001 3.159415e+001 2.456609e-002 3.479057e+000 3.458090e+000 3.110894e+000 4.165194e+000 3.818552e+000 3.697789e+000 3.800024e+000 3.916844e+000 3.357462e+000 3.057416e+000 2.720625e+000 2.853178e+000 2.370455e-003 4.318274e-001 7.087888e-001 5.089313e-001 6.512840e-001 7.382389e-001 6.544959e-001 6.577177e-001 7.173338e-001 6.242939e-001 6.633217e-001 5.337147e-001 4.835270e-001 3.763888e-004
<GCONST> 1.075769e+002
<MIXTURE> 4 2.500000e-001
<MEAN> 39
 4.643376e+000 -5.554567e+000 -6.874958e+000 -1.288303e+000 2.982199e-001 -2.441367e+000 -1.485661e+000 -2.929060e+000 -3.524446e+000 -4.497131e+000 -5.728707e+000 -4.280199e+000 5.643551e-001 -1.277070e+000 2.179950e+000 4.337789e-001 6.417257e-001 -8.771385e-001 -1.078700e+000 -2.382827e-001 -7.973111e-001 -6.558682e-001 -9.093273e-001 -6.817771e-001 -4.878577e-001 -1.069826e-001 -1.076736e+000 -6.236277e-001 -3.323186e-001 -3.050174e-001 -1.564700e-002 1.364532e-002 -3.840851e-001 -2.608315e-001 -1.156307e-001 -2.682502e-001 -4.197913e-002 -3.004207e-001 -1.619821e-002
<VARIANCE> 39
 1.522644e+001 4.688426e+001 3.288604e+001 5.542526e+001 7.025789e+001 6.102805e+001 5.103722e+001 4.558018e+001 4.189021e+001 4.642035e+001 3.458196e+001 3.159415e+001 2.456609e-002 3.479057e+000 3.458090e+000 3.110894e+000 4.165194e+000 3.818552e+000 3.697789e+000 3.800024e+000 3.916844e+000 3.357462e+000 3.057416e+000 2.720625e+000 2.853178e+000 2.370455e-003 4.318274e-001 7.087888e-001 5.089313e-001 6.512840e-001 7.382389e-001 6.544959e-001 6.577177e-001 7.173338e-001 6.242939e-001 6.633217e-001 5.337147e-001 4.835270e-001 3.763888e-004
<GCONST> 1.075769e+002
<TRANSP> 7
 0.000000e+000 1.000000e+000 0.000000e+000 0.000000e+000 0.000000e+000 0.000000e+000 0.000000e+000
 0.000000e+000 4.797944e-001 5.202056e-001 0.000000e+000 0.000000e+000 0.000000e+000 0.000000e+000
 0.000000e+000 0.000000e+000 5.827882e-001 4.172118e-001 0.000000e+000 0.000000e+000 0.000000e+000
 0.000000e+000 0.000000e+000 0.000000e+000 8.608705e-001 1.391295e-001 0.000000e+000 0.000000e+000
 0.000000e+000 0.000000e+000 0.000000e+000 0.000000e+000 6.389624e-001 3.610376e-001 0.000000e+000
 0.000000e+000 0.000000e+000 0.000000e+000 0.000000e+000 0.000000e+000 6.201400e-001 3.798600e-001
 0.000000e+000 0.000000e+000 0.000000e+000 0.000000e+000 0.000000e+000 0.000000e+000 0.000000e+000
<ENDHMM>
~h "b"
<BEGINHMM>
<NUMSTATES> 5
<STATE> 2
<NUMMIXES> 4
<MIXTURE> 1 2.500000e-001
<MEAN> 39
 9.337280e-001 5.958217e+000 2.520946e+000 9.017352e+000 5.021009e+000 2.573417e+000 6.627891e+000 3.337334e+000 4.750181e+000 1.598634e+000 1.552759e+000 2.317108e+000 2.455391e-001 4.390352e-001 -7.472386e-001 2.732702e-001 4.047709e-001 6.304580e-002 4.406274e-001 -5.626178e-002 6.918151e-001 7.543460e-001 1.357338e+000 1.866767e+000 8.887427e-001 1.098494e-001 1.240046e+000 1.854662e-001 3.840424e-001 -6.509095e-001 -1.320733e-001 6.298524e-001 -3.039236e-001 1.158839e-001 -8.186299e-002 3.096055e-001 4.133108e-001 1.609260e-001 7.478213e-002
<VARIANCE> 39
 4.375214e+001 4.879211e+001 4.013231e+001 4.542868e+001 3.387740e+001 4.598545e+001 3.940697e+001 3.679945e+001 4.038203e+001 3.320426e+001 4.262090e+001 2.591170e+001 6.471981e-002 5.301353e+000 4.287119e+000 5.754824e+000 5.197101e+000 4.128134e+000 5.148753e+000 4.371035e+000 4.250054e+000 4.393849e+000 3.898129e+000 3.894071e+000 2.921931e+000 9.929222e-003 6.281930e-001 1.417603e+000 1.233700e+000 1.074982e+000 8.795831e-001 1.158420e+000 9.181985e-001 9.015958e-001 9.300978e-001 8.134620e-001 1.002827e+000 6.252282e-001 6.520499e-004
<GCONST> 1.180280e+002
<MIXTURE> 2 2.500000e-001
<MEAN> 39
 -1.712088e+000 3.164163e+000 -1.305682e-002 6.321320e+000 2.692837e+000 -1.390855e-001 4.116892e+000 9.108318e-001 2.208307e+000 -7.062917e-001 -1.058628e+000 2.809665e-001 1.437787e-001 -4.819515e-001 -1.575453e+000 -6.862983e-001 -5.071152e-001 -7.496666e-001 -4.670072e-001 -8.925426e-001 -1.328112e-001 -8.411446e-002 5.675908e-001 1.077431e+000 2.049965e-001 6.999122e-002 9.230113e-001 -2.907863e-001 -6.024584e-002 -1.065635e+000 -5.072177e-001 1.993327e-001 -6.872143e-001 -2.639257e-001 -4.676293e-001 -5.116298e-002 1.274574e-002 -1.553595e-001 6.456803e-002
<VARIANCE> 39
 4.375214e+001 4.879211e+001 4.013231e+001 4.542868e+001 3.387740e+001 4.598545e+001 3.940697e+001 3.679945e+001 4.038203e+001 3.320426e+001 4.262090e+001 2.591170e+001 6.471981e-002 5.301353e+000 4.287119e+000 5.754824e+000 5.197101e+000 4.128134e+000 5.148753e+000 4.371035e+000 4.250054e+000 4.393849e+000 3.898129e+000 3.894071e+000 2.921931e+000 9.929222e-003 6.281930e-001 1.417603e+000 1.233700e+000 1.074982e+000 8.795831e-001 1.158420e+000 9.181985e-001 9.015958e-001 9.300978e-001 8.134620e-001 1.002827e+000 6.252282e-001 6.520499e-004
<GCONST> 1.180280e+002
<MIXTURE> 3 2.500000e-001
<MEAN> 39
 -1.712088e+000 3.164163e+000 -1.305681e-002 6.321320e+000 2.692837e+000 -1.390855e-001 4.116892e+000 9.108318e-001 2.208307e+000 -7.062917e-001 -1.058628e+000 2.809665e-001 1.437787e-001 -4.819515e-001 -1.575453e+000 -6.862984e-001 -5.071152e-001 -7.496666e-001 -4.670072e-001 -8.925426e-001 -1.328112e-001 -8.411446e-002 5.675908e-001 1.077431e+000 2.049965e-001 6.999122e-002 9.230113e-001 -2.907863e-001 -6.024585e-002 -1.065635e+000 -5.072177e-001 1.993327e-001 -6.872143e-001 -2.639257e-001 -4.676293e-001 -5.116298e-002 1.274575e-002 -1.553595e-001 6.456803e-002
<VARIANCE> 39
 4.375214e+001 4.879211e+001 4.013231e+001 4.542868e+001 3.387740e+001 4.598545e+001 3.940697e+001 3.679945e+001 4.038203e+001 3.320426e+001 4.262090e+001 2.591170e+001 6.471981e-002 5.301353e+000 4.287119e+000 5.754824e+000 5.197101e+000 4.128134e+000 5.148753e+000 4.371035e+000 4.250054e+000 4.393849e+000 3.898129e+000 3.894071e+000 2.921931e+000 9.929222e-003 6.281930e-001 1.417603e+000 1.233700e+000 1.074982e+000 8.795831e-001 1.158420e+000 9.181985e-001 9.015958e-001 9.300978e-001 8.134620e-001 1.002827e+000 6.252282e-001 6.520499e-004
<GCONST> 1.180280e+002
<MIXTURE> 4 2.500000e-001
<MEAN> 39
 -4.357904e+000 3.701091e-001 -2.547060e+000 3.625288e+000 3.646652e-001 -2.851588e+000 1.605893e+000 -1.515670e+000 -3.335673e-001 -3.011217e+000 -3.670015e+000 -1.755175e+000 4.201834e-002 -1.402938e+000 -2.403667e+000 -1.645867e+000 -1.419001e+000 -1.562379e+000 -1.374642e+000 -1.728823e+000 -9.574375e-001 -9.225749e-001 -2.221564e-001 2.880949e-001 -4.787498e-001 3.013303e-002 6.059768e-001 -7.670388e-001 -5.045341e-001 -1.480360e+000 -8.823621e-001 -2.311870e-001 -1.070505e+000 -6.437353e-001 -8.533956e-001 -4.119315e-001 -3.878193e-001 -4.716450e-001 5.435392e-002
<VARIANCE> 39
 4.375214e+001 4.879211e+001 4.013231e+001 4.542868e+001 3.387740e+001 4.598545e+001 3.940697e+001 3.679945e+001 4.038203e+001 3.320426e+001 4.262090e+001 2.591170e+001 6.471981e-002 5.301353e+000 4.287119e+000 5.754824e+000 5.197101e+000 4.128134e+000 5.148753e+000 4.371035e+000 4.250054e+000 4.393849e+000 3.898129e+000 3.894071e+000 2.921931e+000 9.929222e-003 6.281930e-001 1.417603e+000 1.233700e+000 1.074982e+000 8.795831e-001 1.158420e+000 9.181985e-001 9.015958e-001 9.300978e-001 8.134620e-001 1.002827e+000 6.252282e-001 6.520499e-004
<GCONST> 1.180280e+002
<STATE> 3
<NUMMIXES> 4
<MIXTURE> 1 2.500000e-001
<MEAN> 39
 9.452302e-001 1.729415e+000 1.967666e+000 8.518938e+000 2.867652e+000 -9.198504e-005 3.019396e+000 1.848268e+000 2.978998e+000 2.310007e+000 4.100694e+000 2.183382e+000 5.493465e-001 2.998667e+000 2.007830e-001 1.386766e+000 -2.068367e+000 -8.250689e-001 1.454693e+000 -1.100338e+000 2.478394e-001 -2.052326e-001 8.024808e-001 1.146531e+000 4.605544e-001 2.134595e-001 7.163807e-001 6.212466e-001 4.594629e-001 -6.091961e-001 3.589849e-001 8.911627e-001 3.241162e-001 3.380680e-001 1.882927e-001 1.306196e-001 -6.042515e-002 1.914215e-001 1.795606e-002
<VARIANCE> 39
 2.486731e+001 2.921712e+001 5.115779e+001 3.892470e+001 3.941232e+001 3.689114e+001 3.804282e+001 3.132610e+001 3.213328e+001 2.686541e+001 2.868847e+001 1.975027e+001 3.654658e-002 5.231922e+000 8.938676e+000 1.329487e+001 8.822850e+000 6.871857e+000 8.875137e+000 5.808504e+000 6.395849e+000 6.576293e+000 5.334419e+000 5.669175e+000 4.186759e+000 6.375253e-003 4.977525e-001 9.617694e-001 6.845207e-001 8.861549e-001 9.082458e-001 7.700024e-001 9.137055e-001 7.348759e-001 7.449023e-001 6.720646e-001 7.554415e-001 5.115035e-001 6.530890e-004
<GCONST> 1.170544e+002
<MIXTURE> 2 2.500000e-001
<MEAN> 39
 -1.049455e+000 -4.326990e-001 -8.933214e-001 6.023351e+000 3.564824e-001 -2.429615e+000 5.522418e-001 -3.905210e-001 7.115494e-001 2.367330e-001 1.958229e+000 4.057305e-001 4.728779e-001 2.083731e+000 -9.951218e-001 -7.171928e-002 -3.256498e+000 -1.873638e+000 2.630463e-001 -2.064372e+000 -7.637612e-001 -1.231004e+000 -1.213737e-001 1.941295e-001 -3.579085e-001 1.815214e-001 4.341744e-001 2.289672e-001 1.285198e-001 -9.857393e-001 -2.222287e-002 5.401636e-001 -5.823557e-002 -4.831644e-003 -1.569382e-001 -1.972986e-001 -4.080897e-001 -9.465642e-002 7.733813e-003
<VARIANCE> 39
 2.486731e+001 2.921712e+001 5.115779e+001 3.892470e+001 3.941232e+001 3.689114e+001 3.804282e+001 3.132610e+001 3.213328e+001 2.686541e+001 2.868847e+001 1.975027e+001 3.654658e-002 5.231922e+000 8.938676e+000 1.329487e+001 8.822850e+000 6.871857e+000 8.875137e+000 5.808504e+000 6.395849e+000 6.576293e+000 5.334419e+000 5.669175e+000 4.186759e+000 6.375253e-003 4.977525e-001 9.617694e-001 6.845207e-001 8.861549e-001 9.082458e-001 7.700024e-001 9.137055e-001 7.348759e-001 7.449023e-001 6.720646e-001 7.554415e-001 5.115035e-001 6.530890e-004
<GCONST> 1.170544e+002
<MIXTURE> 3 2.500000e-001
<MEAN> 39
 -1.049455e+000 -4.326990e-001 -8.933213e-001 6.023351e+000 3.564824e-001 -2.429615e+000 5.522418e-001 -3.905210e-001 7.115495e-001 2.367330e-001 1.958229e+000 4.057305e-001 4.728779e-001 2.083731e+000 -9.951218e-001 -7.171924e-002 -3.256498e+000 -1.873638e+000 2.630463e-001 -2.064372e+000 -7.637612e-001 -1.231004e+000 -1.213737e-001 1.941295e-001 -3.579085e-001 1.815214e-001 4.341744e-001 2.289672e-001 1.285198e-001 -9.857393e-001 -2.222287e-002 5.401636e-001 -5.823557e-002 -4.831640e-003 -1.569382e-001 -1.972986e-001 -4.080897e-001 -9.465642e-002 7.733813e-003
<VARIANCE> 39
 2.486731e+001 2.921712e+001 5.115779e+001 3.892470e+001 3.941232e+001 3.689114e+001 3.804282e+001 3.132610e+001 3.213328e+001 2.686541e+001 2.868847e+001 1.975027e+001 3.654658e-002 5.231922e+000 8.938676e+000 1.329487e+001 8.822850e+000 6.871857e+000 8.875137e+000 5.808504e+000 6.395849e+000 6.576293e+000 5.334419e+000 5.669175e+000 4.186759e+000 6.375253e-003 4.977525e-001 9.617694e-001 6.845207e-001 8.861549e-001 9.082458e-001 7.700024e-001 9.137055e-001 7.348759e-001 7.449023e-001 6.720646e-001 7.554415e-001 5.115035e-001 6.530890e-004
<GCONST> 1.170544e+002
<MIXTURE> 4 2.500000e-001
<MEAN> 39
 -3.044140e+000 -2.594814e+000 -3.754308e+000 3.527765e+000 -2.154687e+000 -4.859138e+000 -1.914913e+000 -2.629310e+000 -1.555900e+000 -1.836541e+000 -1.842358e-001 -1.371921e+000 3.964092e-001 1.168795e+000 -2.191027e+000 -1.530205e+000 -4.444629e+000 -2.922207e+000 -9.286004e-001 -3.028406e+000 -1.775362e+000 -2.256775e+000 -1.045228e+000 -7.582717e-001 -1.176371e+000 1.495833e-001 1.519681e-001 -1.633122e-001 -2.024233e-001 -1.362283e+000 -4.034306e-001 1.891645e-001 -4.405873e-001 -3.477313e-001 -5.021691e-001 -5.252168e-001 -7.557543e-001 -3.807343e-001 -2.488430e-003
<VARIANCE> 39
 2.486731e+001 2.921712e+001 5.115779e+001 3.892470e+001 3.941232e+001 3.689114e+001 3.804282e+001 3.132610e+001 3.213328e+001 2.686541e+001 2.868847e+001 1.975027e+001 3.654658e-002 5.231922e+000 8.938676e+000 1.329487e+001 8.822850e+000 6.871857e+000 8.875137e+000 5.808504e+000 6.395849e+000 6.576293e+000 5.334419e+000 5.669175e+000 4.186759e+000 6.375253e-003 4.977525e-001 9.617694e-001 6.845207e-001 8.861549e-001 9.082458e-001 7.700024e-001 9.137055e-001 7.348759e-001 7.449023e-001 6.720646e-001 7.554415e-001 5.115035e-001 6.530890e-004
<GCONST> 1.170544e+002
<STATE> 4
<NUMMIXES> 4
<MIXTURE> 1 2.500000e-001
<MEAN> 39
 7.088204e+000 2.022334e+000 3.986597e+000 -1.715483e+000 -1.021346e+000 3.774859e+000 -7.832674e-001 5.931215e-001 8.606557e-001 2.593045e+000 2.534232e+000 1.443298e+000 8.110473e-001 2.267898e+000 2.945810e-001 8.703717e-001 -2.724083e+000 1.775676e-001 2.223507e+000 -3.136431e-001 5.904059e-001 1.862416e-001 6.098717e-001 4.444593e-001 4.437077e-001 1.576285e-001 -3.304715e-001 4.869272e-001 4.583195e-001 9.682094e-001 9.844133e-001 4.924744e-001 8.902990e-001 6.552613e-001 6.373419e-001 2.466789e-001 1.642759e-001 4.064439e-001 -3.048643e-002
<VARIANCE> 39
 1.990748e+001 5.111023e+001 1.206596e+002 6.614323e+001 5.333410e+001 5.985518e+001 4.007940e+001 4.346124e+001 4.087910e+001 4.100199e+001 3.299493e+001 3.394239e+001 1.367666e-002 3.586960e+000 9.134130e+000 8.261204e+000 8.162060e+000 7.578568e+000 7.095208e+000 6.914861e+000 5.919997e+000 5.813231e+000 4.587024e+000 5.627098e+000 4.100321e+000 4.583515e-003 5.201954e-001 6.389266e-001 1.338656e+000 1.027131e+000 7.241040e-001 8.388149e-001 7.527817e-001 8.309487e-001 8.085397e-001 7.746416e-001 6.991591e-001 5.979708e-001 6.594082e-004
<GCONST> 1.192904e+002
<MIXTURE> 2 2.500000e-001
<MEAN> 39
 5.303492e+000 -8.373232e-001 -4.072096e-001 -4.968622e+000 -3.942554e+000 6.802140e-001 -3.315599e+000 -2.043884e+000 -1.696815e+000 3.173312e-002 2.365839e-001 -8.871061e-001 7.642684e-001 1.510327e+000 -9.143279e-001 -2.793207e-001 -3.866856e+000 -9.236003e-001 1.158034e+000 -1.365488e+000 -3.828358e-001 -7.781842e-001 -2.468218e-001 -5.044009e-001 -3.662623e-001 1.305478e-001 -6.189698e-001 1.671956e-001 -4.481756e-003 5.628195e-001 6.440361e-001 1.261270e-001 5.432470e-001 2.906358e-001 2.776666e-001 -1.053760e-001 -1.701870e-001 9.712955e-002 -4.075801e-002
<VARIANCE> 39
 1.990748e+001 5.111023e+001 1.206596e+002 6.614323e+001 5.333410e+001 5.985518e+001 4.007940e+001 4.346124e+001 4.087910e+001 4.100199e+001 3.299493e+001 3.394239e+001 1.367666e-002 3.586960e+000 9.134130e+000 8.261204e+000 8.162060e+000 7.578568e+000 7.095208e+000 6.914861e+000 5.919997e+000 5.813231e+000 4.587024e+000 5.627098e+000 4.100321e+000 4.583515e-003 5.201954e-001 6.389266e-001 1.338656e+000 1.027131e+000 7.241040e-001 8.388149e-001 7.527817e-001 8.309487e-001 8.085397e-001 7.746416e-001 6.991591e-001 5.979708e-001 6.594082e-004
<GCONST> 1.192904e+002
<MIXTURE> 3 2.500000e-001
<MEAN> 39
 5.303492e+000 -8.373232e-001 -4.072094e-001 -4.968622e+000 -3.942554e+000 6.802141e-001 -3.315599e+000 -2.043884e+000 -1.696815e+000 3.173307e-002 2.365839e-001 -8.871061e-001 7.642684e-001 1.510327e+000 -9.143279e-001 -2.793207e-001 -3.866856e+000 -9.236003e-001 1.158034e+000 -1.365488e+000 -3.828358e-001 -7.781842e-001 -2.468218e-001 -5.044009e-001 -3.662623e-001 1.305478e-001 -6.189698e-001 1.671956e-001 -4.481754e-003 5.628195e-001 6.440361e-001 1.261270e-001 5.432470e-001 2.906358e-001 2.776666e-001 -1.053760e-001 -1.701870e-001 9.712957e-002 -4.075801e-002
<VARIANCE> 39
 1.990748e+001 5.111023e+001 1.206596e+002 6.614323e+001 5.333410e+001 5.985518e+001 4.007940e+001 4.346124e+001 4.087910e+001 4.100199e+001 3.299493e+001 3.394239e+001 1.367666e-002 3.586960e+000 9.134130e+000 8.261204e+000 8.162060e+000 7.578568e+000 7.095208e+000 6.914861e+000 5.919997e+000 5.813231e+000 4.587024e+000 5.627098e+000 4.100321e+000 4.583515e-003 5.201954e-001 6.389266e-001 1.338656e+000 1.027131e+000 7.241040e-001 8.388149e-001 7.527817e-001 8.309487e-001 8.085397e-001 7.746416e-001 6.991591e-001 5.979708e-001 6.594082e-004
<GCONST> 1.192904e+002
<MIXTURE> 4 2.500000e-001
<MEAN> 39
 3.518780e+000 -3.696980e+000 -4.801016e+000 -8.221762e+000 -6.863762e+000 -2.414431e+000 -5.847930e+000 -4.680890e+000 -4.254286e+000 -2.529579e+000 -2.061065e+000 -3.217510e+000 7.174895e-001 7.527561e-001 -2.123237e+000 -1.429013e+000 -5.009629e+000 -2.024768e+000 9.256067e-002 -2.417333e+000 -1.356078e+000 -1.742610e+000 -1.103515e+000 -1.453261e+000 -1.176232e+000 1.034671e-001 -9.074681e-001 -1.525359e-001 -4.672830e-001 1.574296e-001 3.036589e-001 -2.402204e-001 1.961950e-001 -7.398976e-002 -8.200873e-002 -4.574309e-001 -5.046499e-001 -2.121847e-001 -5.102959e-002
<VARIANCE> 39
 1.990748e+001 5.111023e+001 1.206596e+002 6.614323e+001 5.333410e+001 5.985518e+001 4.007940e+001 4.346124e+001 4.087910e+001 4.100199e+001 3.299493e+001 3.394239e+001 1.367666e-002 3.586960e+000 9.134130e+000 8.261204e+000 8.162060e+000 7.578568e+000 7.095208e+000 6.914861e+000 5.919997e+000 5.813231e+000 4.587024e+000 5.627098e+000 4.100321e+000 4.583515e-003 5.201954e-001 6.389266e-001 1.338656e+000 1.027131e+000 7.241040e-001 8.388149e-001 7.527817e-001 8.309487e-001 8.085397e-001 7.746416e-001 6.991591e-001 5.979708e-001 6.594082e-004
<GCONST> 1.192904e+002
<TRANSP> 5
 0.000000e+000 1.000000e+000 0.000000e+000 0.000000e+000 0.000000e+000
 0.000000e+000 4.850658e-001 5.149342e-001 0.000000e+000 0.000000e+000
 0.000000e+000 0.000000e+000 2.113811e-001 7.886189e-001 0.000000e+000
 0.000000e+000 0.000000e+000 0.000000e+000 2.970542e-001 7.029458e-001
 0.000000e+000 0.000000e+000 0.000000e+000 0.000000e+000 0.000000e+000
<ENDHMM>
~h "c"
<BEGINHMM>
<NUMSTATES> 5
<STATE> 2
<NUMMIXES> 4
<MIXTURE> 1 2.500000e-001
<MEAN> 39
 -1.370679e+001 5.995705e+000 -6.301737e+000 9.715775e+000 3.129381e+000 -2.890303e-001 5.274909e+000 4.913825e+000 4.474739e+000 4.630933e+000 4.903170e+000 4.270537e+000 4.750269e-001 1.923467e-001 -4.702301e-001 -2.898728e-001 5.590948e-002 6.859470e-001 3.346943e-001 8.165141e-001 1.088566e+000 1.045913e+000 1.115293e+000 1.012462e+000 8.444334e-001 4.867188e-002 1.075289e+000 8.649016e-002 6.246493e-001 1.620041e-001 5.186021e-001 4.054587e-001 2.897867e-001 2.520473e-001 2.439013e-001 1.679095e-001 9.722898e-002 1.699016e-001 7.186990e-003
<VARIANCE> 39
 1.776859e+001 3.282576e+001 3.362069e+001 4.542643e+001 3.839494e+001 4.313195e+001 3.708167e+001 3.160912e+001 2.931938e+001 2.492553e+001 2.821551e+001 1.885483e+001 2.656047e-002 3.290892e+000 2.649464e+000 2.068453e+000 2.071581e+000 2.391417e+000 2.324937e+000 2.631388e+000 2.330973e+000 2.200157e+000 2.069333e+000 2.099794e+000 1.576194e+000 2.449724e-003 5.589563e-001 5.363975e-001 3.652613e-001 4.610100e-001 5.075657e-001 5.521062e-001 5.499244e-001 4.692001e-001 4.425677e-001 4.443546e-001 4.235998e-001 3.358529e-001 5.351806e-004
<GCONST> 9.622700e+001
<MIXTURE> 2 2.500000e-001
<MEAN> 39
 -1.539290e+001 3.703954e+000 -8.621071e+000 7.019810e+000 6.508349e-001 -2.916027e+000 2.839120e+000 2.664945e+000 2.308844e+000 2.633914e+000 2.778439e+000 2.533651e+000 4.098374e-001 -5.332859e-001 -1.121317e+000 -8.651575e-001 -5.198100e-001 6.737874e-002 -2.752155e-001 1.676520e-001 4.778650e-001 4.525963e-001 5.398861e-001 4.328350e-001 3.422471e-001 2.887400e-002 7.762353e-001 -2.064665e-001 3.829019e-001 -1.095868e-001 2.336275e-001 1.082433e-001 -6.840859e-003 -2.194545e-002 -2.220175e-002 -9.873018e-002 -1.631092e-001 -6.190963e-002 -2.066598e-003
<VARIANCE> 39
 1.776859e+001 3.282576e+001 3.362069e+001 4.542643e+001 3.839494e+001 4.313195e+001 3.708167e+001 3.160912e+001 2.931938e+001 2.492553e+001 2.821551e+001 1.885483e+001 2.656047e-002 3.290892e+000 2.649464e+000 2.068453e+000 2.071581e+000 2.391417e+000 2.324937e+000 2.631388e+000 2.330973e+000 2.200157e+000 2.069333e+000 2.099794e+000 1.576194e+000 2.449724e-003 5.589563e-001 5.363975e-001 3.652613e-001 4.610100e-001 5.075657e-001 5.521062e-001 5.499244e-001 4.692001e-001 4.425677e-001 4.443546e-001 4.235998e-001 3.358529e-001 5.351806e-004
<GCONST> 9.622700e+001
<MIXTURE> 3 2.500000e-001
<MEAN> 39
 -1.539290e+001 3.703954e+000 -8.621071e+000 7.019811e+000 6.508349e-001 -2.916027e+000 2.839120e+000 2.664945e+000 2.308844e+000 2.633914e+000 2.778439e+000 2.533651e+000 4.098374e-001 -5.332859e-001 -1.121317e+000 -8.651575e-001 -5.198100e-001 6.737874e-002 -2.752155e-001 1.676520e-001 4.778650e-001 4.525963e-001 5.398861e-001 4.328350e-001 3.422471e-001 2.887400e-002 7.762353e-001 -2.064665e-001 3.829019e-001 -1.095868e-001 2.336275e-001 1.082433e-001 -6.840866e-003 -2.194545e-002 -2.220175e-002 -9.873018e-002 -1.631092e-001 -6.190962e-002 -2.066598e-003
<VARIANCE> 39
 1.776859e+001 3.282576e+001 3.362069e+001 4.542643e+001 3.839494e+001 4.313195e+001 3.708167e+001 3.160912e+001 2.931938e+001 2.492553e+001 2.821551e+001 1.885483e+001 2.656047e-002 3.290892e+000 2.649464e+000 2.068453e+000 2.071581e+000 2.391417e+000 2.324937e+000 2.631388e+000 2.330973e+000 2.200157e+000 2.069333e+000 2.099794e+000 1.576194e+000 2.449724e-003 5.589563e-001 5.363975e-001 3.652613e-001 4.610100e-001 5.075657e-001 5.521062e-001 5.499244e-001 4.692001e-001 4.425677e-001 4.443546e-001 4.235998e-001 3.358529e-001 5.351806e-004
<GCONST> 9.622700e+001
<MIXTURE> 4 2.500000e-001
<MEAN> 39
 -1.707901e+001 1.412203e+000 -1.094040e+001 4.323845e+000 -1.827711e+000 -5.543024e+000 4.033311e-001 4.160654e-001 1.429491e-001 6.368950e-001 6.537082e-001 7.967651e-001 3.446479e-001 -1.258919e+000 -1.772404e+000 -1.440442e+000 -1.095530e+000 -5.511895e-001 -8.851253e-001 -4.812101e-001 -1.328360e-001 -1.407207e-001 -3.552096e-002 -1.467916e-001 -1.599392e-001 9.076127e-003 4.771817e-001 -4.994231e-001 1.411545e-001 -3.811777e-001 -5.134708e-002 -1.889721e-001 -3.034684e-001 -2.959382e-001 -2.883048e-001 -3.653699e-001 -4.234474e-001 -2.937209e-001 -1.132019e-002
<VARIANCE> 39
 1.776859e+001 3.282576e+001 3.362069e+001 4.542643e+001 3.839494e+001 4.313195e+001 3.708167e+001 3.160912e+001 2.931938e+001 2.492553e+001 2.821551e+001 1.885483e+001 2.656047e-002 3.290892e+000 2.649464e+000 2.068453e+000 2.071581e+000 2.391417e+000 2.324937e+000 2.631388e+000 2.330973e+000 2.200157e+000 2.069333e+000 2.099794e+000 1.576194e+000 2.449724e-003 5.589563e-001 5.363975e-001 3.652613e-001 4.610100e-001 5.075657e-001 5.521062e-001 5.499244e-001 4.692001e-001 4.425677e-001 4.443546e-001 4.235998e-001 3.358529e-001 5.351806e-004
<GCONST> 9.622700e+001
<STATE> 3
<NUMMIXES> 4
<MIXTURE> 1 2.500000e-001
<MEAN> 39
 -9.068505e+000 -1.586787e+000 -6.010562e+000 6.468485e+000 8.021686e+000 1.994296e+000 6.283211e+000 6.626179e+000 6.011076e+000 5.701381e+000 4.789001e+000 4.371316e+000 4.634908e-001 2.919607e+000 3.107656e-001 1.436887e+000 3.567649e-001 1.947003e+000 1.471653e+000 4.127391e-001 -9.966396e-002 1.513121e-001 -1.336644e-001 -6.713229e-002 6.733519e-002 3.769195e-002 1.008351e+000 8.436574e-001 4.967293e-001 1.781114e-001 1.296300e-002 3.216673e-001 -9.117794e-002 -1.928541e-001 -1.835168e-003 -1.247420e-002 1.227961e-001 5.713458e-002 2.823457e-002
<VARIANCE> 39
 1.794463e+001 2.955091e+001 3.234274e+001 4.284281e+001 4.368697e+001 4.319760e+001 4.690120e+001 3.953767e+001 3.430525e+001 3.093915e+001 3.396746e+001 2.069679e+001 1.507935e-002 3.612910e+000 4.393088e+000 2.128144e+000 2.399215e+000 3.938024e+000 4.028767e+000 4.332430e+000 3.792819e+000 3.357364e+000 3.513877e+000 2.881244e+000 2.142533e+000 2.059289e-003 5.541964e-001 4.731763e-001 4.734990e-001 5.386575e-001 7.875927e-001 7.269832e-001 8.479428e-001 7.325600e-001 6.671946e-001 6.922606e-001 6.266659e-001 4.524704e-001 3.742549e-004
<GCONST> 1.039800e+002
<MIXTURE> 2 2.500000e-001
<MEAN> 39
 -1.076295e+001 -3.761217e+000 -8.285389e+000 3.850309e+000 5.377841e+000 -6.346990e-001 3.543833e+000 4.111019e+000 3.668249e+000 3.476462e+000 2.457736e+000 2.551567e+000 4.143716e-001 2.159301e+000 -5.276222e-001 8.533604e-001 -2.628111e-001 1.153225e+000 6.687815e-001 -4.198405e-001 -8.786703e-001 -5.816123e-001 -8.834779e-001 -7.461014e-001 -5.181606e-001 1.954020e-002 7.105733e-001 5.685061e-001 2.214842e-001 -1.154617e-001 -3.420227e-001 -1.938589e-002 -4.595132e-001 -5.352130e-001 -3.285631e-001 -3.452830e-001 -1.938528e-001 -2.119291e-001 2.049630e-002
<VARIANCE> 39
 1.794463e+001 2.955091e+001 3.234274e+001 4.284281e+001 4.368697e+001 4.319760e+001 4.690120e+001 3.953767e+001 3.430525e+001 3.093915e+001 3.396746e+001 2.069679e+001 1.507935e-002 3.612910e+000 4.393088e+000 2.128144e+000 2.399215e+000 3.938024e+000 4.028767e+000 4.332430e+000 3.792819e+000 3.357364e+000 3.513877e+000 2.881244e+000 2.142533e+000 2.059289e-003 5.541964e-001 4.731763e-001 4.734990e-001 5.386575e-001 7.875927e-001 7.269832e-001 8.479428e-001 7.325600e-001 6.671946e-001 6.922606e-001 6.266659e-001 4.524704e-001 3.742549e-004
<GCONST> 1.039800e+002
<MIXTURE> 3 2.500000e-001
<MEAN> 39
 -1.076295e+001 -3.761217e+000 -8.285389e+000 3.850309e+000 5.377841e+000 -6.346991e-001 3.543833e+000 4.111019e+000 3.668249e+000 3.476462e+000 2.457736e+000 2.551567e+000 4.143716e-001 2.159301e+000 -5.276222e-001 8.533604e-001 -2.628111e-001 1.153225e+000 6.687815e-001 -4.198405e-001 -8.786704e-001 -5.816123e-001 -8.834779e-001 -7.461014e-001 -5.181606e-001 1.954020e-002 7.105733e-001 5.685061e-001 2.214842e-001 -1.154617e-001 -3.420227e-001 -1.938588e-002 -4.595132e-001 -5.352130e-001 -3.285631e-001 -3.452830e-001 -1.938528e-001 -2.119291e-001 2.049630e-002
<VARIANCE> 39
 1.794463e+001 2.955091e+001 3.234274e+001 4.284281e+001 4.368697e+001 4.319760e+001 4.690120e+001 3.953767e+001 3.430525e+001 3.093915e+001 3.396746e+001 2.069679e+001 1.507935e-002 3.612910e+000 4.393088e+000 2.128144e+000 2.399215e+000 3.938024e+000 4.028767e+000 4.332430e+000 3.792819e+000 3.357364e+000 3.513877e+000 2.881244e+000 2.142533e+000 2.059289e-003 5.541964e-001 4.731763e-001 4.734990e-001 5.386575e-001 7.875927e-001 7.269832e-001 8.479428e-001 7.325600e-001 6.671946e-001 6.922606e-001 6.266659e-001 4.524704e-001 3.742549e-004
<GCONST> 1.039800e+002
<MIXTURE> 4 2.500000e-001
<MEAN> 39
 -1.245739e+001 -5.935647e+000 -1.056022e+001 1.232132e+000 2.733996e+000 -3.263694e+000 8.044550e-001 1.595860e+000 1.325422e+000 1.251543e+000 1.264716e-001 7.318180e-001 3.652524e-001 1.398995e+000 -1.366010e+000 2.698340e-001 -8.823871e-001 3.594468e-001 -1.340901e-001 -1.252420e+000 -1.657677e+000 -1.314537e+000 -1.633291e+000 -1.425071e+000 -1.103656e+000 1.388444e-003 4.127958e-001 2.933549e-001 -5.376086e-002 -4.090348e-001 -6.970084e-001 -3.604391e-001 -8.278484e-001 -8.775718e-001 -6.552910e-001 -6.780918e-001 -5.105017e-001 -4.809928e-001 1.275803e-002
<VARIANCE> 39
 1.794463e+001 2.955091e+001 3.234274e+001 4.284281e+001 4.368697e+001 4.319760e+001 4.690120e+001 3.953767e+001 3.430525e+001 3.093915e+001 3.396746e+001 2.069679e+001 1.507935e-002 3.612910e+000 4.393088e+000 2.128144e+000 2.399215e+000 3.938024e+000 4.028767e+000 4.332430e+000 3.792819e+000 3.357364e+000 3.513877e+000 2.881244e+000 2.142533e+000 2.059289e-003 5.541964e-001 4.731763e-001 4.734990e-001 5.386575e-001 7.875927e-001 7.269832e-001 8.479428e-001 7.325600e-001 6.671946e-001 6.922606e-001 6.266659e-001 4.524704e-001 3.742549e-004
<GCONST> 1.039800e+002
<STATE> 4
<NUMMIXES> 4
<MIXTURE> 1 2.500000e-001
<MEAN> 39
 3.519037e+000 3.118247e+000 -2.250628e+000 5.775699e+000 8.723173e+000 3.179445e+000 2.941451e+000 4.710985e-001 1.773063e+000 9.397614e-001 1.082093e+000 1.279676e+000 7.036181e-001 4.640318e+000 9.674059e-001 1.303339e+000 -1.125878e+000 -3.881080e-001 1.190519e+000 -6.528009e-001 -6.385517e-001 -8.390472e-002 -9.533584e-002 2.486987e-001 1.475943e-002 1.259741e-001 -3.065614e-001 -2.924937e-001 -8.769459e-003 -1.159583e-001 -1.441336e-001 2.963941e-001 3.664936e-001 7.243778e-001 6.437042e-001 6.866571e-001 5.836820e-001 4.551573e-001 9.854323e-003
<VARIANCE> 39
 4.089669e+001 4.511757e+001 2.970742e+001 5.694817e+001 4.520658e+001 4.887409e+001 4.994685e+001 3.552936e+001 3.212526e+001 3.477129e+001 2.904228e+001 2.445553e+001 2.784492e-002 2.307636e+000 4.016156e+000 4.285990e+000 4.354568e+000 5.191265e+000 6.001990e+000 6.669358e+000 5.286934e+000 4.372626e+000 4.523833e+000 3.941739e+000 3.394675e+000 1.224879e-003 6.496826e-001 4.012219e-001 4.437383e-001 5.428758e-001 7.460183e-001 6.241478e-001 7.803170e-001 6.994190e-001 5.903111e-001 6.487274e-001 5.242868e-001 4.461332e-001 4.971920e-004
<GCONST> 1.086873e+002
<MIXTURE> 2 2.500000e-001
<MEAN> 39
 9.610162e-001 4.314620e-001 -4.430808e+000 2.757138e+000 6.033739e+000 3.830450e-001 1.145274e-001 -1.913162e+000 -4.941033e-001 -1.418926e+000 -1.073543e+000 -6.984255e-001 6.368709e-001 4.032682e+000 1.657919e-001 4.752335e-001 -1.960582e+000 -1.299482e+000 2.105603e-001 -1.685805e+000 -1.558285e+000 -9.203377e-001 -9.461080e-001 -5.454538e-001 -7.222263e-001 1.119748e-001 -6.289729e-001 -5.458620e-001 -2.752242e-001 -4.106787e-001 -4.896230e-001 -1.961806e-002 1.315141e-002 3.898527e-001 3.363774e-001 3.644826e-001 2.940514e-001 1.879845e-001 9.352018e-004
<VARIANCE> 39
 4.089669e+001 4.511757e+001 2.970742e+001 5.694817e+001 4.520658e+001 4.887409e+001 4.994685e+001 3.552936e+001 3.212526e+001 3.477129e+001 2.904228e+001 2.445553e+001 2.784492e-002 2.307636e+000 4.016156e+000 4.285990e+000 4.354568e+000 5.191265e+000 6.001990e+000 6.669358e+000 5.286934e+000 4.372626e+000 4.523833e+000 3.941739e+000 3.394675e+000 1.224879e-003 6.496826e-001 4.012219e-001 4.437383e-001 5.428758e-001 7.460183e-001 6.241478e-001 7.803170e-001 6.994190e-001 5.903111e-001 6.487274e-001 5.242868e-001 4.461332e-001 4.971920e-004
<GCONST> 1.086873e+002
<MIXTURE> 3 2.500000e-001
<MEAN> 39
 9.610161e-001 4.314620e-001 -4.430808e+000 2.757138e+000 6.033739e+000 3.830450e-001 1.145274e-001 -1.913162e+000 -4.941033e-001 -1.418926e+000 -1.073543e+000 -6.984255e-001 6.368709e-001 4.032682e+000 1.657919e-001 4.752335e-001 -1.960582e+000 -1.299482e+000 2.105603e-001 -1.685805e+000 -1.558285e+000 -9.203377e-001 -9.461080e-001 -5.454538e-001 -7.222263e-001 1.119748e-001 -6.289729e-001 -5.458620e-001 -2.752242e-001 -4.106787e-001 -4.896230e-001 -1.961805e-002 1.315142e-002 3.898527e-001 3.363774e-001 3.644826e-001 2.940514e-001 1.879845e-001 9.352018e-004
<VARIANCE> 39
 4.089669e+001 4.511757e+001 2.970742e+001 5.694817e+001 4.520658e+001 4.887409e+001 4.994685e+001 3.552936e+001 3.212526e+001 3.477129e+001 2.904228e+001 2.445553e+001 2.784492e-002 2.307636e+000 4.016156e+000 4.285990e+000 4.354568e+000 5.191265e+000 6.001990e+000 6.669358e+000 5.286934e+000 4.372626e+000 4.523833e+000 3.941739e+000 3.394675e+000 1.224879e-003 6.496826e-001 4.012219e-001 4.437383e-001 5.428758e-001 7.460183e-001 6.241478e-001 7.803170e-001 6.994190e-001 5.903111e-001 6.487274e-001 5.242868e-001 4.461332e-001 4.971920e-004
<GCONST> 1.086873e+002
<MIXTURE> 4 2.500000e-001
<MEAN> 39
 -1.597005e+000 -2.255322e+000 -6.610989e+000 -2.614224e-001 3.344305e+000 -2.413355e+000 -2.712396e+000 -4.297422e+000 -2.761269e+000 -3.777613e+000 -3.229179e+000 -2.676527e+000 5.701237e-001 3.425046e+000 -6.358221e-001 -3.528718e-001 -2.795286e+000 -2.210856e+000 -7.693980e-001 -2.718809e+000 -2.478019e+000 -1.756771e+000 -1.796880e+000 -1.339606e+000 -1.459212e+000 9.797549e-002 -9.513844e-001 -7.992303e-001 -5.416790e-001 -7.053992e-001 -8.351124e-001 -3.356301e-001 -3.401908e-001 5.532760e-002 2.905059e-002 4.230815e-002 4.420794e-003 -7.918832e-002 -7.983919e-003
<VARIANCE> 39
 4.089669e+001 4.511757e+001 2.970742e+001 5.694817e+001 4.520658e+001 4.887409e+001 4.994685e+001 3.552936e+001 3.212526e+001 3.477129e+001 2.904228e+001 2.445553e+001 2.784492e-002 2.307636e+000 4.016156e+000 4.285990e+000 4.354568e+000 5.191265e+000 6.001990e+000 6.669358e+000 5.286934e+000 4.372626e+000 4.523833e+000 3.941739e+000 3.394675e+000 1.224879e-003 6.496826e-001 4.012219e-001 4.437383e-001 5.428758e-001 7.460183e-001 6.241478e-001 7.803170e-001 6.994190e-001 5.903111e-001 6.487274e-001 5.242868e-001 4.461332e-001 4.971920e-004
<GCONST> 1.086873e+002
<TRANSP> 5
 0.000000e+000 1.000000e+000 0.000000e+000 0.000000e+000 0.000000e+000
 0.000000e+000 8.102509e-001 1.897491e-001 0.000000e+000 0.000000e+000
 0.000000e+000 0.000000e+000 7.267101e-001 2.732898e-001 0.000000e+000
 0.000000e+000 0.000000e+000 0.000000e+000 5.332172e-001 4.667828e-001
 0.000000e+000 0.000000e+000 0.000000e+000 0.000000e+000 0.000000e+000
<ENDHMM>
~h "d"
<BEGINHMM>
<NUMSTATES> 5
<STATE> 2
<NUMMIXES> 4
<MIXTURE> 1 2.500000e-001
<MEAN> 39
 3.417915e+000 7.508409e+000 4.460635e+000 9.000215e+000 4.972965e+000 1.236814e+000 5.514108e+000 2.046773e+000 3.932031e+000 1.382334e+000 8.331293e-001 1.257085e+000 3.858331e-001 -9.164187e-001 -9.225322e-001 9.639312e-002 -1.631108e-001 7.625265e-001 4.983434e-001 6.668705e-001 1.197281e+000 1.160324e+000 1.577499e+000 1.975404e+000 1.155478e+000 7.411461e-002 7.509028e-001 -2.186015e-001 1.971828e-001 -5.465490e-001 -2.581483e-001 2.508373e-001 -3.845805e-001 4.074898e-001 2.179179e-001 5.091469e-001 4.649856e-001 5.889478e-001 7.002268e-002
<VARIANCE> 39
 5.194092e+001 4.352967e+001 4.018160e+001 4.082740e+001 3.921499e+001 4.438858e+001 4.491723e+001 4.173066e+001 4.084682e+001 3.840818e+001 4.121394e+001 2.759473e+001 7.452810e-002 3.725714e+000 3.633044e+000 4.459163e+000 3.805798e+000 4.596256e+000 4.812195e+000 5.404055e+000 5.230910e+000 4.496736e+000 4.474760e+000 4.183044e+000 3.056099e+000 9.497921e-003 8.932894e-001 1.300593e+000 1.167563e+000 8.920788e-001 9.134510e-001 1.063887e+000 1.095214e+000 1.146177e+000 9.682018e-001 9.469569e-001 1.027496e+000 8.399225e-001 7.578700e-004
<GCONST> 1.193381e+002
<MIXTURE> 2 2.500000e-001
<MEAN> 39
 5.351127e-001 4.869328e+000 1.925077e+000 6.444361e+000 2.468090e+000 -1.428176e+000 2.833295e+000 -5.371981e-001 1.375570e+000 -1.096639e+000 -1.734794e+000 -8.441427e-001 2.766338e-001 -1.688503e+000 -1.684954e+000 -7.482762e-001 -9.434491e-001 -9.502868e-002 -3.791252e-001 -2.629945e-001 2.824333e-001 3.121036e-001 7.313537e-001 1.157304e+000 4.562097e-001 3.513170e-002 3.728468e-001 -6.747757e-001 -2.350325e-001 -9.243487e-001 -6.404468e-001 -1.617423e-001 -8.031905e-001 -2.074879e-002 -1.756711e-001 1.199000e-001 5.952369e-002 2.223587e-001 5.901090e-002
<VARIANCE> 39
 5.194092e+001 4.352967e+001 4.018160e+001 4.082740e+001 3.921499e+001 4.438858e+001 4.491723e+001 4.173066e+001 4.084682e+001 3.840818e+001 4.121394e+001 2.759473e+001 7.452810e-002 3.725714e+000 3.633044e+000 4.459163e+000 3.805798e+000 4.596256e+000 4.812195e+000 5.404055e+000 5.230910e+000 4.496736e+000 4.474760e+000 4.183044e+000 3.056099e+000 9.497921e-003 8.932894e-001 1.300593e+000 1.167563e+000 8.920788e-001 9.134510e-001 1.063887e+000 1.095214e+000 1.146177e+000 9.682018e-001 9.469569e-001 1.027496e+000 8.399225e-001 7.578700e-004
<GCONST> 1.193381e+002
<MIXTURE> 3 2.500000e-001
<MEAN> 39
 5.351127e-001 4.869328e+000 1.925077e+000 6.444361e+000 2.468090e+000 -1.428176e+000 2.833295e+000 -5.371981e-001 1.375570e+000 -1.096639e+000 -1.734794e+000 -8.441427e-001 2.766338e-001 -1.688503e+000 -1.684954e+000 -7.482761e-001 -9.434490e-001 -9.502869e-002 -3.791252e-001 -2.629945e-001 2.824333e-001 3.121036e-001 7.313536e-001 1.157304e+000 4.562097e-001 3.513170e-002 3.728468e-001 -6.747757e-001 -2.350325e-001 -9.243487e-001 -6.404468e-001 -1.617423e-001 -8.031904e-001 -2.074880e-002 -1.756711e-001 1.199000e-001 5.952370e-002 2.223587e-001 5.901090e-002
<VARIANCE> 39
 5.194092e+001 4.352967e+001 4.018160e+001 4.082740e+001 3.921499e+001 4.438858e+001 4.491723e+001 4.173066e+001 4.084682e+001 3.840818e+001 4.121394e+001 2.759473e+001 7.452810e-002 3.725714e+000 3.633044e+000 4.459163e+000 3.805798e+000 4.596256e+000 4.812195e+000 5.404055e+000 5.230910e+000 4.496736e+000 4.474760e+000 4.183044e+000 3.056099e+000 9.497921e-003 8.932894e-001 1.300593e+000 1.167563e+000 8.920788e-001 9.134510e-001 1.063887e+000 1.095214e+000 1.146177e+000 9.682018e-001 9.469569e-001 1.027496e+000 8.399225e-001 7.578700e-004
<GCONST> 1.193381e+002
<MIXTURE> 4 2.500000e-001
<MEAN> 39
 -2.347689e+000 2.230247e+000 -6.104813e-001 3.888508e+000 -3.678486e-002 -4.093166e+000 1.524825e-001 -3.121169e+000 -1.180891e+000 -3.575612e+000 -4.302717e+000 -2.945370e+000 1.674345e-001 -2.460587e+000 -2.447376e+000 -1.592945e+000 -1.723787e+000 -9.525838e-001 -1.256594e+000 -1.192859e+000 -6.324140e-001 -5.361168e-001 -1.147915e-001 3.392044e-001 -2.430584e-001 -3.851212e-003 -5.209143e-003 -1.130950e+000 -6.672478e-001 -1.302148e+000 -1.022745e+000 -5.743219e-001 -1.221800e+000 -4.489874e-001 -5.692601e-001 -2.693468e-001 -3.459382e-001 -1.442304e-001 4.799913e-002
<VARIANCE> 39
 5.194092e+001 4.352967e+001 4.018160e+001 4.082740e+001 3.921499e+001 4.438858e+001 4.491723e+001 4.173066e+001 4.084682e+001 3.840818e+001 4.121394e+001 2.759473e+001 7.452810e-002 3.725714e+000 3.633044e+000 4.459163e+000 3.805798e+000 4.596256e+000 4.812195e+000 5.404055e+000 5.230910e+000 4.496736e+000 4.474760e+000 4.183044e+000 3.056099e+000 9.497921e-003 8.932894e-001 1.300593e+000 1.167563e+000 8.920788e-001 9.134510e-001 1.063887e+000 1.095214e+000 1.146177e+000 9.682018e-001 9.469569e-001 1.027496e+000 8.399225e-001 7.578700e-004
<GCONST> 1.193381e+002
<STATE> 3
<NUMMIXES> 4
<MIXTURE> 1 2.500000e-001
<MEAN> 39
 -8.526547e-001 2.422997e+000 3.006430e+000 5.555576e+000 3.654108e+000 -6.081759e-001 4.328724e+000 1.981172e+000 4.076016e+000 3.439007e+000 4.423771e+000 2.767007e+000 5.985245e-001 1.451220e+000 -6.200778e-001 9.247708e-001 -1.396816e+000 -4.824728e-001 3.120609e-001 -1.216921e+000 1.186518e+000 6.735482e-001 1.158404e+000 1.101613e+000 1.255965e+000 1.849309e-001 9.833818e-001 3.550079e-001 4.030997e-001 -7.098775e-002 1.868041e-001 7.444637e-001 9.492643e-002 4.150982e-001 1.369271e-001 1.107647e-001 -5.591759e-002 1.969696e-001 2.282204e-002
<VARIANCE> 39
 2.856858e+001 2.856581e+001 4.378681e+001 2.987002e+001 4.517824e+001 4.623956e+001 5.403231e+001 4.172955e+001 3.419966e+001 3.177865e+001 3.737762e+001 2.372761e+001 3.306349e-002 4.809889e+000 6.730941e+000 1.100015e+001 5.548486e+000 5.654494e+000 6.393092e+000 7.151351e+000 8.884993e+000 6.511413e+000 5.243723e+000 5.380917e+000 4.935784e+000 7.245896e-003 4.728811e-001 8.391754e-001 8.761912e-001 6.234095e-001 9.070622e-001 1.028586e+000 1.147331e+000 9.494998e-001 8.062891e-001 7.787084e-001 9.173190e-001 6.414427e-001 6.294413e-004
<GCONST> 1.186242e+002
<MIXTURE> 2 2.500000e-001
<MEAN> 39
 -2.990638e+000 2.851179e-001 3.595664e-001 3.369437e+000 9.655173e-001 -3.328163e+000 1.388457e+000 -6.027649e-001 1.736797e+000 1.184105e+000 1.978282e+000 8.185672e-001 5.257910e-001 5.739617e-001 -1.657840e+000 -4.018881e-001 -2.339025e+000 -1.433640e+000 -6.993217e-001 -2.286601e+000 -5.790352e-003 -3.471506e-001 2.424374e-001 1.737404e-001 3.672998e-001 1.508818e-001 7.083164e-001 -1.141820e-002 2.867934e-002 -3.868129e-001 -1.941551e-001 3.387868e-001 -3.335277e-001 2.532904e-002 -2.222473e-001 -2.422131e-001 -4.390247e-001 -1.233909e-001 1.278657e-002
<VARIANCE> 39
 2.856858e+001 2.856581e+001 4.378681e+001 2.987002e+001 4.517824e+001 4.623956e+001 5.403231e+001 4.172955e+001 3.419966e+001 3.177865e+001 3.737762e+001 2.372761e+001 3.306349e-002 4.809889e+000 6.730941e+000 1.100015e+001 5.548486e+000 5.654494e+000 6.393092e+000 7.151351e+000 8.884993e+000 6.511413e+000 5.243723e+000 5.380917e+000 4.935784e+000 7.245896e-003 4.728811e-001 8.391754e-001 8.761912e-001 6.234095e-001 9.070622e-001 1.028586e+000 1.147331e+000 9.494998e-001 8.062891e-001 7.787084e-001 9.173190e-001 6.414427e-001 6.294413e-004
<GCONST> 1.186242e+002
<MIXTURE> 3 2.500000e-001
<MEAN> 39
 -2.990638e+000 2.851178e-001 3.595663e-001 3.369437e+000 9.655173e-001 -3.328163e+000 1.388457e+000 -6.027649e-001 1.736797e+000 1.184105e+000 1.978282e+000 8.185672e-001 5.257910e-001 5.739617e-001 -1.657840e+000 -4.018882e-001 -2.339025e+000 -1.433640e+000 -6.993217e-001 -2.286601e+000 -5.790353e-003 -3.471506e-001 2.424374e-001 1.737404e-001 3.672998e-001 1.508818e-001 7.083164e-001 -1.141820e-002 2.867934e-002 -3.868129e-001 -1.941551e-001 3.387868e-001 -3.335277e-001 2.532905e-002 -2.222473e-001 -2.422131e-001 -4.390247e-001 -1.233909e-001 1.278657e-002
<VARIANCE> 39
 2.856858e+001 2.856581e+001 4.378681e+001 2.987002e+001 4.517824e+001 4.623956e+001 5.403231e+001 4.172955e+001 3.419966e+001 3.177865e+001 3.737762e+001 2.372761e+001 3.306349e-002 4.809889e+000 6.730941e+000 1.100015e+001 5.548486e+000 5.654494e+000 6.393092e+000 7.151351e+000 8.884993e+000 6.511413e+000 5.243723e+000 5.380917e+000 4.935784e+000 7.245896e-003 4.728811e-001 8.391754e-001 8.761912e-001 6.234095e-001 9.070622e-001 1.028586e+000 1.147331e+000 9.494998e-001 8.062891e-001 7.787084e-001 9.173190e-001 6.414427e-001 6.294413e-004
<GCONST> 1.186242e+002
<MIXTURE> 4 2.500000e-001
<MEAN> 39
 -5.128622e+000 -1.852762e+000 -2.287298e+000 1.183298e+000 -1.723073e+000 -6.048150e+000 -1.551810e+000 -3.186702e+000 -6.024221e-001 -1.070797e+000 -4.672076e-001 -1.129873e+000 4.530575e-001 -3.032967e-001 -2.695602e+000 -1.728547e+000 -3.281234e+000 -2.384807e+000 -1.710704e+000 -3.356281e+000 -1.198099e+000 -1.367849e+000 -6.735297e-001 -7.541317e-001 -5.213652e-001 1.168327e-001 4.332510e-001 -3.778443e-001 -3.457410e-001 -7.026380e-001 -5.751144e-001 -6.689011e-002 -7.619818e-001 -3.644401e-001 -5.814217e-001 -5.951909e-001 -8.221318e-001 -4.437514e-001 2.751103e-003
<VARIANCE> 39
 2.856858e+001 2.856581e+001 4.378681e+001 2.987002e+001 4.517824e+001 4.623956e+001 5.403231e+001 4.172955e+001 3.419966e+001 3.177865e+001 3.737762e+001 2.372761e+001 3.306349e-002 4.809889e+000 6.730941e+000 1.100015e+001 5.548486e+000 5.654494e+000 6.393092e+000 7.151351e+000 8.884993e+000 6.511413e+000 5.243723e+000 5.380917e+000 4.935784e+000 7.245896e-003 4.728811e-001 8.391754e-001 8.761912e-001 6.234095e-001 9.070622e-001 1.028586e+000 1.147331e+000 9.494998e-001 8.062891e-001 7.787084e-001 9.173190e-001 6.414427e-001 6.294413e-004
<GCONST> 1.186242e+002
<STATE> 4
<NUMMIXES> 4
<MIXTURE> 1 2.500000e-001
<MEAN> 39
 3.862565e+000 1.000814e+000 3.337986e+000 6.218942e-001 1.997400e-001 -2.164222e+000 -2.659848e+000 3.050697e+000 3.686141e+000 3.319170e+000 1.754408e+000 4.045237e+000 8.188107e-001 1.919812e+000 -5.952531e-001 4.171974e-001 -1.469455e+000 7.580972e-002 1.400733e+000 -6.308187e-001 1.249958e+000 4.757429e-001 6.876546e-001 3.269758e-001 8.792774e-001 1.361599e-001 2.257386e-001 5.071957e-001 4.140212e-001 6.586919e-001 7.528722e-001 9.982330e-001 1.122278e+000 4.177281e-001 2.864037e-001 1.805798e-001 2.551160e-001 7.999684e-002 -2.272129e-002
<VARIANCE> 39
 1.583005e+001 4.079956e+001 8.599556e+001 4.095060e+001 4.888429e+001 3.916157e+001 5.473788e+001 6.272704e+001 4.386406e+001 4.269698e+001 4.077201e+001 4.156861e+001 9.277681e-003 3.368572e+000 6.825782e+000 8.754145e+000 5.132703e+000 6.063477e+000 6.841460e+000 7.966906e+000 7.638962e+000 6.148525e+000 4.833098e+000 6.001962e+000 5.313328e+000 4.049322e-003 4.479614e-001 5.051901e-001 8.308392e-001 6.069003e-001 6.976177e-001 7.456734e-001 9.619668e-001 1.129961e+000 8.308963e-001 7.994113e-001 7.529954e-001 7.111850e-001 6.798058e-004
<GCONST> 1.173543e+002
<MIXTURE> 2 2.500000e-001
<MEAN> 39
